#pragma once
#include <stdint.h>

static const int16_t hu_mean_q2[7] = { 10952, 1467, 268, 46, 0, 5, 0 };
static const int16_t hu_std_q2[7] = { 2754, 2089, 461, 85, 3, 24, 2 };
static const int16_t W1_q[700] = { -5039, 2553, -4888, 895, -10082, -1500, 8409, -2994, -2961, -1141, 3269, -5705, 4652, -1650, 9204, 2129, -3338, 4668, 3668, -2976, -7204, -2690, -9079, -10539, -2909, 6579, -1544, -9227, -1165, 620, -3914, 4158, -9084, -7464, -6312, 13249, -43, -2470, -4506, -2813, 22, -2995, 13791, 602, 549, -6583, -5816, -4956, -9274, -2783, 4566, -1381, 261, -1017, -10903, -1679, -4986, -8334, 532, 865, 10032, 432, 13016, -3854, -1527, 646, -6112, -7341, 1729, -6959, 11332, 5613, 880, 6182, -9314, -12703, -1429, -7028, 5827, -7524, -4785, -2755, 9599, -5507, -4288, 2176, 861, 13097, -2351, -5246, -7548, -12246, -4570, 3333, 1616, 8281, 10362, 3691, -1632, -1541, 12975, -11009, -4242, -916, -9255, 3884, -6716, -15841, 7733, 2985, -7857, -13242, -2357, -11223, 3598, -1475, 7461, -8111, 10564, -10561, -11019, -9039, 6346, 8576, 9986, 2461, -7675, 1635, -6778, -4447, 77, -1473, -14409, -13597, 249, 4087, 5976, -594, 12045, -6155, 5115, 5355, -12548, -10370, -46, 84, -6488, -3561, -14801, 4348, -7440, 7711, -9467, 5415, 9108, 8323, -9127, 10687, 7266, 944, -12509, 14492, 15188, -3671, -7856, 11147, 11304, 2442, 9566, 11910, -7635, 8294, 1125, 6121, 12093, -3733, 11530, -5050, 4294, -2967, 7580, -5225, 3905, -8029, 5115, 2628, 3154, -42, -12887, 49, -1167, 9755, -10148, -13453, -385, -9244, -6272, -2653, -13918, 259, 4212, -12042, -6411, 4061, -9494, 12550, -17805, -1176, 10221, 3681, 9687, 2468, -2718, -16264, 11928, 9499, 14689, -12294, -12476, 1430, 2473, -1794, 7, 50, -13652, -13064, -5890, 5670, -1162, 8242, 11470, -2870, -4685, 1195, -5907, -11446, -3172, -13475, -14272, -8148, -13890, -4669, -7655, -9159, -6141, -15907, -10956, -12597, -3893, 8593, -4310, -835, 2577, 7236, 1096, -5586, 14025, 6209, 10662, -11502, -19734, 76, 7594, -2064, 447, -5519, -13909, 1021, 7851, -6547, -11345, -1918, 13896, 17207, -11532, -10282, -13146, 6017, -9765, -7618, 10784, -4604, 5884, 1535, -12289, -14247, 12567, 1059, -1114, 9926, 6238, 1866, 1234, -6572, 3287, -7149, 8026, -11894, 10355, 10971, -14272, -10659, -9237, -772, 3043, -2048, -11084, 8182, -9395, -10732, 7001, -5762, -8399, 3937, -4201, -6779, -11102, 7501, 4749, 12959, 3669, 6358, -11481, -5876, -4408, 634, 3821, -3968, -17979, 8756, 1586, 11081, 7390, 2703, 8134, 3390, 7555, 2208, -3682, -8297, -13346, 12035, -5063, 8852, -18220, -2545, 5747, 7804, 8904, -3464, -12033, -2188, 3668, -1342, -2377, -10536, 6666, -9870, -12422, -12264, 4946, 4799, 7603, -5986, -18314, 8766, 9562, 9598, 10459, -1442, 6884, -17101, -6020, 6653, 872, 8265, 6397, 5476, -17004, -12820, -9353, -14975, -3377, -13781, -7394, -11701, -11030, 9909, -12195, 10865, -16587, -2548, -13354, -8838, 6088, -812, -8182, -1601, -1795, 9280, 7259, -755, 1414, -15512, -2108, 16564, -787, -6287, -7659, -15543, -18220, 3891, -3227, -2446, -3485, -7516, -6892, 6274, 972, 4660, -3728, 2289, 6124, -7631, 1813, -2593, -4862, 1257, 2948, -7969, -19631, 7576, 5963, -2549, -15792, -3879, 8772, -3099, 3350, 3743, -3210, -12531, 5114, -8380, -912, 4150, -4843, 1480, 5767, -15597, 3125, 6596, -10817, -12860, 3585, 4054, -12093, -5697, -5493, 3072, -3906, -1946, 950, 10657, -1791, 6916, 410, -7282, -621, -1325, -4852, -2078, 10420, 5597, 2361, 3775, -1902, -7098, -2604, 1855, 8895, 4470, -15176, 7743, -3166, -398, -5719, 8225, -887, 10843, 1136, -4408, 1255, 2302, 6557, 941, 84, 7401, -32, -8723, -591, 1198, 6044, 7785, 6088, -6201, -2376, 5796, 7320, 8149, -8138, 10202, 9888, 1283, 4560, 8026, 9755, -6397, -5042, 429, 8481, -1458, 4905, -22960, -9926, 8958, 7694, 10531, 9339, 7810, -13294, 2832, -19332, 5902, 2894, 6546, -14165, -10145, 3200, -12790, 9923, -19794, 2201, -7025, 11387, -276, -8692, -67, -10069, 1051, 1863, 962, -19558, -1575, 6071, -10420, 7973, -7471, 8155, -8956, 8568, 12026, 8063, 12744, 14308, 653, -5339, -148, 106, 5375, -7928, -13271, -11868, 3763, 1948, 3515, 2305, 12481, -1194, 5335, 4057, -9610, -440, 13007, -8294, 9223, 7342, -246, 11395, -9517, -3258, 8552, 10271, 3698, -9187, 1970, 2434, 11710, -12786, -8631, 4760, 3397, 11521, 1239, 4025, -4765, -2164, 603, 2545, -13780, 17283, -9708, 27430, -6550, 10714, 7669, 3328, -13451, 22212, 12451, -12338, 4182, 7378, 14203, 5424, -14467, -11693, 4865, 7152, 9066, 2892, 7421, 4499, -2769, -17745, 5493, 7374, -9734, 8634, 2613, -7402, -11410, -14929, -11990, -7796, -2914, -15975, -14750, -7975, -10480, 4043, 22740, 8329, -20113, -13348, 10996, 5667, 8099, 6091, -5259, 9367, 2562, -3420, 9259, 10616, 9560, -7764, 3958, 8992, -13913, 4125, 7567, 6255, 8972, -7464, 7490, 4110, -4235, 13846, -6172, -14103, -5719, -6763, 6070, -1528, -3068, 513, -5288, 12869, -11345, 7029, 5984, 4953, 9373, 3347, -14265, -7662, 9220, -17599, -2336 };
static const int16_t b1_q[100] = { 1719, -6278, 282, 10040, 3703, 5797, -1426, 4199, 4425, 6002, 5601, -277, 3445, 1057, 4907, 4316, 3787, 4744, 8707, 2577, 3349, 5957, 2206, 4024, 5094, 6741, 3184, 7106, -1863, 8102, 7568, 13744, -2683, 5693, 6810, 7743, 6812, 1948, -1478, -1222, -7030, 7576, 7713, 5965, -7233, -3135, 6623, 4496, 2297, 9354, -2241, 6949, 5795, 5334, 6103, 4519, 4008, 3184, 5680, -6979, 5522, 8282, 1156, 5692, 3597, -580, 1708, 8908, -4111, 6945, 5601, 2780, 4950, -5721, -6482, 3218, 6021, 2516, 1222, -44, 2644, -5146, 8150, 1154, -4981, -4808, 6018, 12575, 604, 1781, 6097, 5105, -4985, 5667, 8112, 5132, 9510, -263, 4184, 5730 };
static const int16_t W2_q[10000] = { -1187, 19009, 1687, 10591, 10518, 3291, -657, 5000, -13134, -10944, 14272, 512, 3236, 6966, 8635, -1990, -739, -2261, 6708, 3157, 3519, -4426, -8763, 5700, 13465, -12211, -243, -548, -2757, 1244, 1072, -6640, -320, 1327, -5627, -7006, 5470, -12663, -2860, -6983, 6959, -3208, -10614, 14545, -2956, -127, 599, 7412, -7092, -4026, -4763, -12934, 4763, -7446, -4105, 8329, -2746, -1648, -4048, 407, -1340, 3698, 6217, 14309, -1750, -6305, 14222, -4227, 8749, -5382, -9073, 8949, -2538, 3864, 779, 13057, -4404, -5752, -13012, -793, -8743, 9557, 2567, -11835, -8669, 6980, 1257, -4812, -3805, 219, 5973, -7182, -3030, -10038, 4516, 1723, -8097, -5231, 8986, -11128, 2278, -6049, -512, -520, 12148, 5988, -13663, 1768, -4782, 1819, -5428, -572, -3590, -6850, -11531, -9624, -2183, 2928, 7269, -7902, -2796, 1157, 3019, -702, 6333, -3758, 1299, -4431, 4158, -3488, 8058, -663, 2097, 5110, 1224, 2215, -4136, -806, -2395, -1954, -5640, 4487, 1116, -81, 1526, -7661, 4307, -2938, 9493, -769, 550, 222, 9388, -4114, 6943, 4362, 3511, -1579, 4236, -505, -2935, -6981, -5724, -3016, -4131, -1038, 603, 718, 3452, 8187, -185, 3381, -7041, 3822, 8748, -1148, -3398, 10338, -9127, -10491, 4423, -1819, 8985, -727, -2268, -4709, 7110, 3130, -9566, -3350, 4491, 5219, -702, 5805, 4568, -58, -137, -8789, 1531, 6226, -1840, -1841, 2540, -3825, 4732, 8313, -2122, 4570, -880, -1555, 7536, 7053, -4465, -4668, -1920, 3530, -4869, 1942, 6822, 1858, -881, -5004, 7403, 2869, -758, -5758, -1082, 1828, 225, 777, 581, 3118, 5530, 6108, 3393, -5852, 1862, 552, -4414, -3431, -4505, 2208, -2816, 4802, 8125, -5696, 5940, 3387, 3547, -239, -2000, -2374, 6925, 950, 2090, -1989, 6223, -5573, -2836, -5309, 1469, 677, 1318, 2145, 3104, 6439, -770, -5569, 4633, -2550, -3080, 6563, 4055, 7246, 2137, 2834, -2298, 7574, -758, 1348, 5130, -2985, -187, -2519, -1470, -748, -1048, -1821, 861, -1282, 4456, 3108, 4342, -1356, 2990, 6893, 5363, 2789, 4406, -1998, -3517, 5305, -1366, 2815, -5688, 4212, 5037, -4041, 4135, -2446, 6922, 3917, 3478, 1601, 1026, 90, -3945, 5229, -5158, 7948, -2823, -1356, -4206, 5585, -2441, 2937, 2862, 3748, -4319, -2866, -1751, 2776, 2974, -709, 5608, 12637, -433, -166, 3968, 6165, 3160, -2405, 6919, 3852, 2839, -8363, -8421, -3814, -3069, 366, -7112, 8922, -7974, 8535, 3210, -3507, -818, 3016, 4271, -4635, 3673, 3459, 1683, -3987, 1259, 692, 4574, -1326, -6348, -7085, 4440, 416, 7318, 732, 3935, -543, -4794, 8258, 5954, 322, 4109, 4477, -16291, 80, 4734, 4388, -1205, -4565, -4584, -2004, 19, 3162, 7060, 4670, -8663, 4914, -127, 7520, 1474, -4815, 5116, -5954, 6023, 799, 1143, 1488, -19, 613, -7849, -534, 583, 8002, -1413, 1973, -2806, -2854, 6873, 2993, -2580, -3049, -283, -1445, 5133, 2455, 2754, 4955, 577, 4954, 2252, -1246, -458, -4270, -2159, 4255, -1214, -3630, 7613, -1999, 3276, -6947, -36, 1068, -68, -2701, 8939, -4058, 5274, -9363, 7577, 1491, 1230, -2402, 5082, 3952, 8004, 4064, 5651, -2519, 5083, 4424, 915, 8829, -3511, 1846, -3262, 2654, -2854, -3385, -2082, -1318, 1524, 3762, -1085, -245, 6341, -4067, 4499, -1729, 5531, -1944, 7367, 554, 3757, -2495, 2202, 4953, 4209, -3188, 5068, 228, 5452, 2120, -3761, 622, -3632, 6846, 2039, 4501, 5110, 6329, -8004, -3815, 3648, 4120, 6302, 9370, -1542, -1201, 1968, -9989, 11054, 651, 5763, 1306, -2031, 2774, 634, 2719, -4748, -636, 7134, -1987, -753, 2942, 9359, 2283, 781, -2753, -6895, -1949, 3644, -7970, 6299, 4186, -701, -12467, -3283, -538, -8385, -6308, -10282, -1022, 973, 2380, 4647, 939, 4343, 4100, -3915, 5392, -4558, -10553, 7317, 4559, 2301, 10097, 2265, -1091, -10047, 3924, 1995, -657, 2461, 6904, -7645, -3153, 8349, -925, 7621, -4345, 907, 1870, -4199, 491, -10821, -2736, 1855, -1550, 1023, -5370, -1237, 6933, -11869, 1253, -3281, 8870, -3089, 2580, 1370, -981, -4852, -8633, -3190, -5426, 5403, 2997, -798, -13776, -5138, 3589, 4900, -7548, 4809, -5725, 4892, -789, -14962, -340, -3075, 1342, -3148, 4348, -1623, -8697, -1214, -3878, 1091, 7925, 453, -4327, -4588, -2443, 3720, 3841, 739, -2115, 115, -10306, 4197, -1000, 6926, -3058, 2220, 8133, -3238, 232, -9621, 6949, 5349, -2651, 1866, 6478, 1081, 2528, 5863, 5539, 7151, 2925, 9119, -2832, 337, -1107, 6782, -831, 2844, -2185, -6158, -8924, -5064, 1134, 5984, -11368, -5571, -448, 29, -7815, 1222, -1699, -278, 2479, 3235, 8349, 166, 5024, 5368, -6850, -1183, 1692, 369, -3626, -369, -1955, 5614, 1921, 3455, -4217, -176, 4738, -4399, -2142, 1608, 3581, 2896, -5347, 7146, 7616, 6939, -11656, -939, 3866, 3075, 4515, 7177, -2093, -5907, -2430, -692, 1286, -5043, 2323, 5426, -1468, -7326, -935, -6689, 6291, -4175, -7638, -3063, 8073, -3965, -869, 2631, 1386, -8624, -2811, 5666, 10324, 60, 2460, 4996, -3900, -2670, 3981, 6141, 2532, -1347, 4398, 1188, 4024, 4431, -3444, 4104, -356, 978, 5610, -2121, 4022, 9931, -3192, 2095, 3826, 1184, 8174, -1214, -1647, 6588, 4512, 9686, -2545, 6406, 7295, -7260, -6051, 4475, 6534, -2298, -6591, -359, 3769, 6206, -2169, 8256, -3784, 7114, 3979, -4810, 4027, 6437, 7358, 10454, -7551, -2077, 7971, -2301, -330, 4730, -4313, 1817, 3512, 3494, -1196, -1320, -1088, -8051, 4923, -3963, 9364, -6116, 1051, -18186, 12145, -9, 14021, 2367, 7019, 7270, 1976, 1634, -19611, 7424, -7366, 2052, 8562, 2629, 1810, -713, 4726, -2590, 6850, 1349, 1405, -6051, 4723, 8260, 2318, 4234, -807, -12374, -5388, -7509, -1710, -171, -4795, 6767, 3377, -10135, -9280, -600, 773, 5761, -14105, -1860, 13370, -7515, -9854, 2248, 366, -6948, -1995, -14046, -4550, 5332, 3854, -5108, 2413, 572, 8471, 1687, -993, 9675, -4168, 157, 8536, -7217, -3438, 5105, 5582, 3055, -20343, 3384, 2009, 5288, -5779, -1891, 9954, -5278, 818, -8766, 11339, -1403, 11416, -10337, -975, -6856, 2977, -1278, 3163, -3475, -12131, 826, -8266, 1329, -17434, -14483, -5732, -4738, 7812, 9040, -12812, -10491, 17929, 1507, 7443, 4120, -1453, 4483, 7202, 1291, -16508, 10821, -14272, 2253, -6118, 4097, 9026, -3588, -3724, -3520, 11640, -15986, -2220, -13688, 8708, 11281, 8206, 7215, 1692, -2925, 480, -9154, -6073, 2606, -9019, 9464, 13557, -5134, 7357, 7344, 8170, 12018, -13986, -1435, 9543, -841, -7329, 4040, 7400, -2120, 367, -8746, 11359, -3089, 5807, -12996, -3076, -5078, 7832, -4331, 3830, 1713, -9361, -8760, 5843, -21172, -6773, 8347, 2237, 7248, -6867, 469, -1861, 1120, -8308, 7608, 3436, -2491, -331, 2967, 3736, 2705, 14306, -578, -664, -6223, -2901, -11309, 30, -1846, -11081, 1470, -21082, -3723, -9059, -12789, -8048, -5093, 14417, 4378, 4445, -12637, -2663, -7181, -3214, -7236, -3686, 7491, -2659, 3104, 3283, 4542, 4402, 4929, 396, -1754, 5211, -4465, -9184, -1713, 6019, 2542, 3311, -4867, -6845, 2083, -1896, 4876, 6841, 2172, -5259, 3420, 2109, -12330, -9144, -1679, -558, 3184, 4789, 5211, 7629, 2663, -8082, -6279, -7627, -8383, 1225, -15922, -892, 4446, -619, -1010, 7262, -7538, 2662, 1134, 398, -4561, 3066, 5142, 1716, -725, 797, 4605, -2134, 5915, -4714, -5339, -2491, -4252, 5105, -385, -5293, 8001, 324, -10203, 3499, -4348, 5353, 23, 6273, 2493, -1166, -20035, -1666, 5457, -687, 1482, 2591, -9079, 1486, -6341, 4323, -2153, -8043, -6109, -4945, 4137, 1964, 7201, -7140, 4455, 3556, -1891, 7322, 1094, 3184, -5418, -2412, 2800, -6058, -1710, -1704, -3301, -1425, -1749, 1315, -7635, 353, 7035, -1792, -4053, -5583, -1527, 6355, 2074, 1926, 4323, 4006, -4619, -2288, -3180, -95, -976, -625, 4129, 5626, -8875, 5359, 1279, -6666, -5081, 653, 1021, 361, -2027, 3934, 11161, 5313, 9627, 2972, 1395, -3347, 4280, 6297, 5675, 2323, -4987, -2485, 4775, -5677, 3157, 4176, -2742, -7235, 3884, 1955, -4005, -3494, 5885, 2754, 4477, -1124, 6972, -800, 1413, -4106, 2291, 3987, 5195, -3213, 181, 3206, -1575, -1557, 2046, 1420, -5106, 1061, 1293, -1499, 8206, -9950, -4231, 929, -1329, 1760, -3509, 11702, -5217, 2636, -5471, 3522, -152, -1043, 3031, 6025, -295, 4167, -12843, -2280, 4218, 7320, 4448, -6859, 5156, -2173, 4997, 5486, -9501, -1879, -3441, 360, -2143, 1252, 6924, -6667, 4457, 15122, -11765, 139, 1222, -5655, -12026, 7316, 1486, -16081, -18863, -8166, 7531, -242, 1561, 4667, -10920, 7581, -6358, -7506, 4625, 536, 6920, 3895, -7177, -8044, -403, 461, 3832, -552, 5483, 5989, 1689, 6786, 9279, 4843, 1846, 6446, -4980, -11487, 2134, 6787, -3842, -14562, -3948, -1395, -3628, 2926, 13637, 9314, 1071, -147, -1249, 551, -2559, 2474, -5554, -5239, -2377, 8306, 6631, 319, -7585, -14968, -3842, -791, 3598, -11092, -4279, 4442, -4237, -21283, 6272, -11109, 11986, -6272, 4660, -9619, 3416, 3571, 2999, 1067, -1506, 4343, -10911, -1583, 1339, -5022, -8875, 6196, -6092, 3599, 8262, 1836, -1921, 5243, -845, -2233, -833, 1397, 4996, -4925, -4633, 3145, 3309, -1805, 5118, 7562, -3807, 355, 3058, 3737, 152, 2325, -561, 8233, 6622, -9759, 2710, 335, 6107, -8445, 2539, 4909, 2351, -3180, -1401, -1750, 8687, -1900, -3668, -4813, 7523, 736, -4510, 548, -5568, -9794, -3251, -193, -8871, -1811, -6098, 5143, 252, -3391, -1609, 1903, 6200, 1624, -2010, 9032, -2753, -831, 2626, -6366, 9612, -1181, -609, -3056, -3984, 4773, 1210, 944, 2786, 4716, -2088, 3967, 3673, 4954, 2934, -79, -3618, 2190, -4138, -11494, -5692, -6750, 1154, 7735, 893, 3901, 745, -4572, -2467, 974, -3806, -4348, -2763, -1384, 1826, 7223, -241, -12515, -3881, 2945, 9593, -10196, 5008, 3950, 856, -510, -5093, -1698, 2815, 2230, -7418, 2617, -6113, 273, -378, 1634, 433, 1259, 1998, 5795, -2148, -1600, 2939, -20, 6888, 3056, 1851, -3229, -4199, -2205, -3745, -3629, -4937, -7682, -588, 1567, -5791, 3240, -6095, -5037, 2088, -6056, 2303, -11057, -7772, -2084, -5767, 3021, 4304, 3238, -1883, -5479, -3818, -6024, -4978, 3309, -4654, -6444, -6526, 3112, 4795, 448, 7063, -4481, 448, -3350, -8348, -9842, -4724, 2687, -4936, 407, -11965, 1371, 5158, -3896, 237, -2319, -16081, 6020, -581, 5022, 5244, 4307, 1758, 3152, -3049, -12239, 11562, -4945, -1710, -5500, -5681, 7532, 674, 1322, -7312, 8062, -2120, -5972, -1083, 8789, 6396, 2310, 6448, -1423, -3494, -2613, -9997, -6226, -8730, 2366, 2975, 838, -16563, -3197, 8602, 1896, 7231, -13704, -9699, 13771, -2491, -3654, -1532, 154, 5542, 402, -29135, -2090, 2116, 551, 4725, 1546, 6240, 9622, 3916, 945, 5283, -152, 2978, 43, -10123, -8266, 796, -1796, -1804, -6654, 4098, -5829, -2632, -6095, 8418, 2686, -1733, 3622, -3049, 8812, 5518, 6967, -21779, 7541, -2723, 8853, 3509, -3068, -5443, -5379, 6130, -2515, 7067, -16507, -16676, -5072, 4084, -967, -551, -11782, -18655, 12680, -11991, 5747, 2663, 4225, 924, 11281, -7558, -23392, 12346, -6538, 3196, 8664, 10143, 1037, 6230, 345, -5470, 4777, -2248, 960, -14725, 12560, 6502, -4313, -3341, -1225, -10994, -876, -16414, -11033, -997, -5154, 3755, -4248, -14362, -12329, 1468, 5949, 11730, -12410, -13704, 14631, -1538, -10068, 381, 6534, -1027, -5362, -22363, -8779, -318, 2806, -5878, 3864, -606, 4414, 1998, 1942, 1195, 5179, 4281, 6324, -7115, -10488, 11353, 7935, 1136, 32043, 2230, -4818, 2341, -1552, 4555, 12264, -2113, -1523, -11892, 2587, 2374, 10569, -10575, 3201, -9517, 2793, 5398, 3537, -221, 212, 6676, -12845, 283, -13495, -7418, -1575, -5655, -1747, 4168, -27750, 5911, -10970, -139, -8906, -9912, -3207, 3223, 1118, 1923, 4454, -11089, 2388, 1797, -288, -4317, -928, 4261, 426, -1388, 224, 424, -2232, -6338, -2401, -4067, 6538, 5402, -2759, -2392, 4712, 6791, 4221, 4169, 2169, 1020, 3341, 1190, 7956, 5486, -3668, 7720, 1231, -689, -7762, 1061, 7309, -1909, -4343, -871, 5091, 655, 10765, -6441, 4213, -876, -14905, -6029, 3691, 3241, 6538, 3296, -4374, -3937, -7936, -1351, 1635, -4595, 3364, -17426, 3544, 7626, -1934, 658, 3204, 1588, -4617, -2298, 2791, 7238, -398, 8786, -18533, 3799, -4839, -614, -5801, -899, 532, -3896, 6565, 5292, -4302, -10942, 177, 9142, -2909, 3042, -5987, -4138, 2847, 6053, -5869, 1724, -2863, -12057, -6552, 3787, 8608, -205, 4551, -5096, -1148, 9601, 1322, 10751, 1898, 9531, 5785, -9359, 5039, 2262, 5579, 1446, -4893, -9083, -1774, 2014, 8581, 3527, 1992, 10566, -2502, -4413, 782, 2164, -1546, -7648, -83, -7056, 6773, -2342, 3407, -2255, -7389, 592, 6811, -6461, 7099, -15100, -1261, 2944, -4459, -12871, 2439, 871, -2059, -5185, 1484, -1914, 9010, 9666, -2561, 6865, 1066, 5102, -15882, -8054, 966, -6193, -13854, -2252, 5798, -2167, 5454, -2078, 6252, 4391, -5603, 455, 5395, -15697, -11166, -3438, -725, 3645, 3063, 8293, 3931, -4217, -302, 1942, 11119, 5511, -3199, 2065, 1719, 321, -19794, 2833, -5950, 3829, -995, 5918, 2082, -7657, -8547, 5572, -524, -7806, 4751, 1961, 4549, -4421, 2648, -1817, -2909, 1894, -10911, -4358, -968, 5030, 1997, 1476, -2688, -6282, -5869, -2236, 5455, -802, -54, 97, -6479, -7038, 1884, 4605, -9743, 3996, -2845, 3711, -4041, -6702, 3812, -11003, -41, -2326, 9450, -6776, -2195, 2406, -5226, -6163, -3001, -967, 4058, -516, -5495, -137, 1122, 5359, -4856, 3836, 2926, 3271, -6111, -834, 4062, -9277, -5133, 718, -1178, 792, -12080, 8096, 1995, -3180, -429, -6763, -776, -3689, 2433, 1564, -9282, -5938, -2866, -6387, -2639, 5883, -5675, -909, -3332, -2487, 6852, 8538, 2418, -2568, -2830, -1956, -4526, -3674, -6075, -5780, -1099, 6388, 5961, -4024, -5882, 1643, 4471, 2833, 3522, -1620, -8023, -9153, -979, -2872, 8590, -3710, -2631, 1140, 1466, -1259, -3665, -1829, 10338, 537, 5181, 3080, 3799, -323, 1334, -6931, -2330, -1093, 4413, 10090, 5354, 2661, 389, 2757, 2170, 7123, -5718, 8454, -3138, 5545, 1859, 3947, -1589, -925, -5567, -5112, 7844, 6105, 7942, -811, 271, 5760, 2956, 2350, -3567, 5117, 93, -347, 1820, 987, 4122, -4093, -4921, -3086, -2569, -1353, -9905, 4574, -7068, -4134, -2263, -766, 7726, -1977, 5689, 69, -4747, 3270, -312, -522, 6285, -8494, -4176, 7954, -289, 10099, -12266, -5586, -130, -2223, 1114, 1204, 6005, 346, -622, -5487, 3112, 561, -1919, -3053, -11320, 838, -5178, -3221, 3477, 3250, 8449, 832, -3782, -2976, -35, -3812, 712, 357, 6802, 3879, 1132, 5721, 1020, -8920, -2164, 1323, 6459, -202, -3936, 4188, 1905, -6553, 8233, 7324, 1133, -3232, 360, 2474, 2779, 1803, 790, -4041, 2691, -2221, -507, -1208, -1613, 7861, -3980, 4658, -2145, 4913, -564, 8025, -4004, -1214, 6155, 6996, 3679, 3135, -1930, 4147, -3738, 5783, 1123, -5042, 872, -5306, -4179, -127, -10082, 1941, -5495, -7703, -4106, -6392, 2896, 1645, 7609, 3053, -2762, -1902, -1945, 4249, -640, 4715, -4397, -311, 1031, 2102, 8486, -734, -757, -5785, 7217, -767, 3598, -13167, -245, -4683, 3669, 3128, 231, 1553, 1556, 7310, -1432, -6502, -2847, 2808, -1402, -3166, 7670, 5430, -7063, -5383, -3258, -2141, 5570, 2306, 2258, -3501, 7730, 8783, -6494, -5940, -5727, 3566, -4871, -3179, -9985, 5619, -4456, -3290, -2444, 7980, -8472, 321, -7632, 1864, -4674, -2308, 2529, -4419, -10972, 5870, 1489, 2233, -1203, -4540, -8603, 202, -6025, 1484, 3757, 3521, -1256, -5839, -4312, -1001, 4501, 2477, 6461, 2496, -739, 6838, 5046, 10823, -4609, -1613, 6433, 3390, 3884, 3734, 13694, 3096, 490, 1742, -4188, 574, 8763, 2421, -5117, -1138, -2689, 3340, 1099, -652, 811, 6318, -7761, -1283, -4135, 3508, 1466, -6276, -4432, 8589, 2298, 5181, 6528, -6266, 7556, 3884, 3506, 5161, 3841, 5792, -2284, -3172, -565, 10285, 9504, 10897, -410, 370, -1124, 2011, 6035, 1214, 2172, 119, -1159, 8651, -5974, -5916, -593, 9314, -4616, -1533, 6074, -3104, -4515, -1027, 2586, 5327, 2153, -4814, 8527, -4320, 2604, -2637, 2869, -9053, 6264, -6865, 13219, -4665, -4977, 627, 369, 3151, 5934, 903, 10892, 185, 2421, -6111, -611, 851, -2007, 5361, 7471, 5409, 2886, 6959, 5598, 4538, 367, -969, 7653, 7526, 5830, -10320, 1991, -1782, -868, 9379, 1380, -6095, 1669, 2140, 6622, 1786, -2837, 7752, 623, -887, -37, -1016, 3875, 7346, -421, 9039, -3250, 1300, 2666, 5527, -4451, 5263, -556, -4324, -1027, -2279, 3153, 1212, 7160, 3657, 3531, 15, -2634, 9430, 2358, 8006, 1143, 8541, -660, -421, 4010, 2542, 762, 2475, -2363, -4015, -4533, 2104, -5534, 9561, 1337, 4401, 2305, 2077, 3135, 3489, -581, 5882, -6856, -1871, 8329, 5841, -3732, -4027, 1095, -1596, 608, -5299, 6722, -4669, -2476, 7699, -1169, -4130, 722, 1591, 2620, -12357, 3187, -5501, 4672, 1264, -4004, 475, 8958, 5423, -3964, 3164, 7292, -2908, -2056, -6697, 498, -835, 9771, -5775, 3835, -3424, -6672, 1584, -9108, -12066, -2889, 7965, -3250, 2848, -3217, 8214, -3586, 5161, 324, 2700, 1248, -2734, 6895, 6081, 813, 2240, -7899, -5598, -1864, 8162, -4018, -2274, 128, -6012, -2482, -5254, -2348, 4479, -1988, -13011, -7808, -5821, 1124, 2142, -3747, -6554, 12789, 5659, -557, -5182, 2537, 1461, 5828, -3015, 7544, -470, 985, 3321, -972, 2183, 6241, 11311, -4288, 1808, 15368, 3761, 10264, 2738, 796, 5490, 8581, 7574, -3435, 113, 613, 11088, 3933, -4476, -2931, 118, 2928, 4766, 5762, 6609, 114, -12985, 777, -5688, 1295, -4975, -11673, -7706, -3713, -6981, -1087, -2140, -3857, 904, -12613, 7253, -2478, -5510, -1502, 9176, -3101, -3693, -1912, -2639, -6910, 3026, -10815, 2781, 6178, 5266, -7859, -4957, 1839, 3897, 120, 1900, -3741, 2741, 4118, -3134, -1414, 973, 7901, -5846, 1631, 544, 5068, -3534, 6159, -8431, -10545, 7075, -5053, -2356, -1487, -2623, -1213, -5147, 5176, -940, 7297, 455, -9041, 1856, 7168, -2650, -6074, 2785, 10532, -414, 9149, 4128, 9490, -3193, 3683, 2596, -4833, 3615, -1002, 3849, 9484, -2623, -766, 7712, -4547, 4911, 461, 1290, 47, 9692, -7707, -6073, -1445, 3539, 807, 2519, 2009, -3016, 7535, -4202, -12022, 863, 1766, 6975, -2193, 3355, -2446, -2478, -7073, -2020, 8485, 119, 3040, -828, -5654, -32, 443, -2372, -4212, 4793, -3971, -4542, 6142, 7784, 4791, 7506, -8756, -767, 451, -5013, -4736, -12950, 3092, 1488, -2509, 9507, -8469, -7791, -2320, -4698, 3505, -6487, 6535, 883, 2572, -7165, 5934, 5320, 1199, 3930, -2689, -2482, 3404, -4545, -3617, 7277, -3623, 1735, 168, -2032, 8584, 6485, 5118, 1801, 10868, 8249, 4076, 4187, 7658, 114, 2532, -3135, 2691, -325, 423, 4494, -4764, -3686, 5258, -1065, -351, 1594, -2580, 4167, 793, 130, -6809, -3890, 10717, 5294, -7610, 3309, 1244, 4917, 3976, -6908, -4789, -1794, -91, 3869, 2716, 3797, 658, 6262, 4268, 3651, 4414, 5846, 5594, 480, -178, 7537, -901, 2500, -8131, 1521, -7280, -1674, -6639, -5178, -396, -6163, 653, 4189, 3147, 2710, 3164, -8894, -121, -5243, 11571, 2019, 3155, 892, 678, 3684, -1122, 4139, 1841, -8718, 2895, -3008, 4636, -5662, -1300, -7349, 7664, 5842, 2822, 10748, 2885, -4859, -4669, 436, -8199, 4212, 4874, 340, -5030, -3740, 2550, -3204, 9466, 7626, -943, -2274, -2302, 6319, 3471, 6794, -6966, -1414, -4394, -1056, 3186, 6245, -143, 2411, 4041, -3826, -2054, -9039, -3530, 1712, -6374, 950, 1804, -671, 9738, 2866, -4866, 5114, 611, 7956, -510, -1105, -4096, 3972, -2098, 3827, 6351, 5253, -5286, -1597, -7652, -3847, 487, 3369, 4669, -6188, -4253, 8725, 2281, 5513, 1936, -1943, 2789, -2801, -3192, 5623, -160, -3501, 4759, -7452, -761, 6641, 7295, 8511, -1849, -7253, -3139, -646, 5144, 823, -6371, 3846, -7868, -4025, 1811, 4992, 8358, 4330, -7105, -6469, -947, -5809, 5913, -1046, 1864, -14457, 63, 4662, 2356, 1007, -186, 9543, 4793, 4596, -1210, -5777, 6992, -2601, -300, -8400, 4948, -573, 4499, 1250, 458, 2871, 1370, 965, 6474, -6364, -4767, 546, -5213, -7947, 1410, 9624, -4237, 5913, 2050, -661, 1136, 6023, 4345, -7735, 1887, -1511, -9574, -11264, 5251, 6095, -4644, 646, 6323, -539, 6354, -4351, -7753, -831, 1543, 6543, 1281, -2426, -2273, 3546, -7955, -1741, -1356, -3236, -2759, 1900, -4639, 5703, -5718, 9965, -4854, -1988, -1015, -7412, 5222, 5654, 6805, 2931, 769, -23531, 225, -2153, 4691, 252, 2218, 1753, -710, 2833, 5284, 6141, -4201, -15691, -2380, 2650, -1825, 2250, -6768, -3961, 646, 457, 6141, -3050, 2327, 1475, 2615, 8396, 5539, 4082, 3281, 4204, 49, -231, 8239, 531, 1708, -3590, 2557, -2096, 50, -5464, -9143, 451, 8767, -4400, 3512, 3878, -2737, -12279, 1215, 460, -9053, 1390, 7802, -7691, -3398, 1983, 8709, 2675, -9259, -4249, -7155, -6534, 5669, -5644, 9193, -6258, -4828, -7362, 12466, -4368, 9892, 418, 5671, -633, 4587, 1672, 3032, 7535, -2330, 4005, -2101, -1535, 1768, -4380, 6723, -5231, 7470, 6424, -5813, 6126, 384, -12677, 3753, -4738, 2319, 7723, 8965, -8396, -1711, -11622, 5166, 9221, 4308, -4076, -2189, -1773, 1631, -1363, 9416, 4784, -7820, 5004, -377, 949, -664, 1550, 573, -5178, 2643, 6047, -4520, -11054, -8185, 2335, -1075, 1712, 1284, -1369, 5626, 5000, 3476, 1813, -2312, 6726, 2944, 3137, 1641, 8288, 3263, -2756, -2279, -3169, 2701, -274, -2693, -4131, 4963, -781, -489, 2300, 4588, 4932, -3820, -2529, -3389, 205, -2404, 1419, 4411, -3014, -654, 7063, 3962, -6654, -3936, -4346, -1600, 1343, 2067, -16044, 2066, 8696, -7138, 8193, -2955, 3728, 3510, 1179, 6572, 1157, -1762, -3589, 1882, 1586, 6566, -1804, -9832, -6156, -6444, -2597, -1166, -2974, 6692, 1082, 1057, 6753, 30, -3444, -5301, -16481, 3335, -1087, 2696, 2344, -1693, -3576, -2707, 1114, 4326, 3671, 5858, -5734, 8873, -2201, -287, -12726, 2532, 4760, -6950, 3016, -5445, -3835, -67, 5824, 495, 3597, 3661, -6837, 600, -1239, -3199, -1813, -927, -3853, -8526, 4922, 3567, 9914, 9302, 6774, -6155, -8760, -6779, 375, -5406, 2589, -2994, 6668, 6420, -10354, 2579, -6737, -6354, 956, -38, -3170, 2455, -10043, -1197, -1915, -1053, 504, 19779, 4432, 599, -244, -4300, -299, -2181, 4717, 3407, -1943, 8434, 5016, 2855, 1256, -7851, 2106, 8102, -2275, -5580, 4249, 6805, -2605, -390, 1806, 3309, -3936, -263, -3860, 2035, -4257, -7549, 3691, -2408, 4294, 1503, 2235, -8026, 1129, 6113, 5615, -2915, 4104, -4676, 1602, 5665, -2633, 1796, 3852, 5560, 3065, 3253, -3609, 5670, -10250, 2483, 28, 990, 6690, 2969, -4499, -6227, 2077, -3191, 4008, -3276, 4381, -1071, -7260, -2242, -1330, -343, 5109, -1076, 112, 3842, 848, -557, 2034, 5042, -4121, -18, 5383, 4118, 4204, 3551, -3062, -2940, 6370, 7487, 4707, 2955, 6068, -908, 3004, 2662, 1901, 83, 3682, 4340, 6429, -2861, -702, 4031, 7368, -2604, -4142, 3225, 3105, 4340, 6199, -3223, 4440, 5223, -667, 1647, 7235, -2288, 1070, -3141, 6537, 4336, -1586, -3248, 4410, 5076, 3065, 1780, 7235, -1, 6541, -5304, -4762, 8682, -3036, 3260, 9967, -3638, 5335, 1094, -2813, -1540, -1635, 2521, 824, 5376, 4389, -2078, 2661, 2152, -3551, 8781, 3273, 5318, -7512, -290, 3977, 8032, 3159, 607, -7563, -6844, 15524, -4920, 7765, 153, 1086, -2733, 3153, 5115, 4566, -138, -2562, -8675, 5609, 6419, -10260, 482, -1438, 5635, -10909, 9628, -2612, 3135, -1295, -2406, -1552, 1242, 2853, -1223, 10205, 8985, 1682, 4126, 5788, 425, 8347, 7649, 7109, 4615, 2388, -199, -6722, 3387, 1660, -3668, 9896, 12722, -6791, 11861, -6164, -9067, -5191, 1331, -3068, -4450, -6893, 4335, -8466, -532, -780, 1302, -3254, 2227, -7659, 529, 1364, -320, 4385, -4359, -600, -7, 1246, 3051, 7983, 4137, 6501, 1713, -4634, -4767, 2104, -2164, -11729, 3513, 14141, 2640, 8272, -4863, -10154, 6309, -6711, 483, -824, 15377, -341, 2705, 3798, -6321, 5403, -3423, 1699, -3790, -4914, 429, 3540, 4052, -8787, 4605, -1234, -7174, 2551, -4807, 202, 8007, 4636, -8124, -78, 7612, 4857, -8528, -6800, 4285, -3467, -1552, 4308, -424, 9642, 6350, -3961, 7463, -1132, -1351, -5161, 2346, 2226, 1781, 1478, 7858, 5248, -8125, -4523, 7912, 5043, 1772, 6568, -5345, -466, -2219, -2071, -5550, 6328, 3131, -4584, 4306, -3564, -6101, -577, 605, -8306, -3145, 3247, -8880, -941, -2663, -3025, -18537, 7515, 443, -6538, 5352, 3053, -5966, -3627, -2357, -5175, -3808, 2733, -7067, -6490, 6625, 1407, -658, -4052, -3666, -5772, 1156, -2046, -3662, 6576, 7811, 91, 2068, 6037, 2795, -6543, 2299, -232, -7319, 1486, 4940, -16050, -1188, 30, -236, 320, 2883, 1916, -397, 3949, 2675, 3723, 2547, 8509, -2650, -6253, 8428, 2103, 3166, 466, -15733, -12737, 1362, 1380, -5990, 1404, -1607, 7159, 5045, -4485, 3807, -453, -4321, 6724, -2855, -13008, 2263, -5257, -805, -5006, -12300, 3260, 7757, -20598, -386, -13137, 4979, 2531, -2683, -21291, 6554, -5505, 5099, -838, 3387, -12012, 3145, 3520, 3116, 3848, -1030, 9447, -3104, -28, 5539, -7074, 3881, 3861, -592, 3736, 8841, -13017, -2840, 4179, -2110, -3635, 4360, -13227, -3497, -4980, -4851, 5746, 6103, 8882, -172, 3075, 7438, -1335, 10442, -1454, 3849, 11039, -4472, -3429, -10576, -12861, 5566, 11777, -14027, 3031, -7356, 4018, 296, -7059, 751, 8123, 6701, -10153, 7111, 11517, 4481, -2473, -1723, 4159, -3015, 1582, 611, 1147, -2617, 4274, -7808, 974, 5128, -300, -5931, 6923, 1422, 4990, 1360, 8311, 2205, -6011, 1266, -1311, 5053, 1113, 8661, 1254, 8279, 6199, -7559, 2685, 4230, -3337, 4270, -849, 3062, 8903, 2314, 3229, 237, -142, 1555, -1670, -6200, -6142, -80, 1475, -6128, -2750, 148, 5722, -3145, -3852, 6574, -2760, 11295, -3905, 3510, 6913, 2871, -2863, -4649, 965, -5537, 6269, -4887, -9821, -3518, 6079, -312, -278, -9924, 7138, 4297, -2298, 8227, -971, 10340, -5500, 1867, 6891, -2346, 5665, 2271, -4970, -1900, 3065, 2873, 3605, -7918, 2159, 6179, 11894, -3240, -2580, 8100, -3596, -1971, 8458, 5859, -949, -1329, -979, 2191, 1415, -4112, 1981, 2312, 422, 2909, 5447, -7, -5181, 11268, -2324, -1724, 2764, -5463, 6456, 4926, -4544, -2597, 14114, -6075, 5662, -2112, 2383, 617, 2590, 901, 7175, 2690, 8766, -5229, -2362, -470, 10788, -9948, 3019, -9762, 1082, -6172, -14549, -3912, -3981, 5119, -1840, -5933, -5064, -797, 8973, 2581, 5794, 1590, 1309, 6673, -10543, 12673, 1805, 2428, 6990, 13341, -4801, 2240, -1141, -2045, -12269, 837, 8224, -10210, 1926, -12026, 1220, -2839, 5351, 7198, -3748, -1970, -10187, 3585, -4015, 3735, 1085, 1150, 1258, 2046, 4644, -6854, 5213, 2129, -1605, -1657, -9984, -941, 9984, 8341, -1934, 1744, 1714, 66, -7343, -3427, -5151, 5631, 8987, 528, -2231, -114, 6732, -3676, -691, -1282, -5719, -7061, 37, -1584, 5498, 1843, 1704, 4440, -5261, 5297, 4120, 4846, -4378, -1656, -988, 6803, -791, 645, 50, -4547, 4977, 2276, -5169, 516, -1742, 2513, 3281, 4510, -807, -2410, 3488, -1185, -2028, 1456, 3028, -1352, 5095, 1230, 6340, 1920, -2095, -3762, 4150, 6400, 2430, 6630, -3463, 5597, -3558, -3408, -1371, 5017, 3217, -1748, -4178, -234, -2277, -1279, 3451, 200, 4203, -1995, 519, -5333, 4364, 9294, -3717, 3813, 10785, -477, 7678, -2089, 2519, -3124, 9134, 1738, 10225, -13224, 17190, 12861, 2979, 8513, -106, -4612, -321, -7874, -4641, 398, -1165, -20452, -1149, 11189, 8355, -530, -2192, 4722, 9984, 2399, 7767, -13487, -719, 7118, -5460, 2534, 11825, -7741, 17696, 3557, -6967, -8450, 12083, -8850, 10688, -4821, -12817, 16246, -1196, 11475, 1473, -10225, 23592, 1160, -4446, -1575, 4751, -13101, 6286, -8048, 10669, 6261, -23568, -9391, -28192, -8774, -3589, -24589, -9486, 1934, -7331, -30488, 3931, -8994, 14365, -8914, -7174, 8461, -21302, 9815, 16960, 2978, 2501, -5574, -14393, -18758, 263, -529, 19368, -8019, -3839, -18551, 4304, 1372, -1121, -2247, 78, -9641, 3050, 8152, 6826, 1053, -699, -22891, 1397, -7537, 210, -6616, -3438, -4625, -10904, -11381, 5306, 1456, 8188, 8792, -9874, -6764, 12308, 3410, 12575, 5605, 6070, -7196, -1595, 7708, -567, 7078, -1619, -12549, -12612, 344, 4388, -4630, 1626, -3364, -3775, 3097, 6464, -13460, 8996, 11565, 3137, -1778, -7721, 11300, -371, -7361, 2213, -9006, -7517, 9143, -20795, -22, -15388, 1260, 9977, 4302, -13364, 7234, -6842, -4457, -16244, 6980, -11785, 1932, -2619, 1728, 105, -729, 11338, 73, -15721, 6319, -9418, 5735, 2486, 4070, 4349, 1269, -20174, -6874, -1883, -4630, 9862, 2058, -2684, -1878, -8424, 201, 10064, -6609, -604, -4835, 9911, 12107, -9134, 10256, 1826, 770, 1204, 1632, -4187, 3430, 6298, 7523, 3609, -15363, 6304, -10988, -8584, 699, -7441, -2101, -2780, -357, -9301, -4645, 954, -21317, -13597, -6483, -5636, 7502, 11095, -9836, -12972, 5381, 4378, 2643, -4455, 11274, 496, -2943, -4133, 892, 629, 6039, 5606, -1840, 5141, 8823, -9637, 4131, 3365, -5003, -861, -3805, 12332, -372, 12599, 1213, -3791, -4235, 8397, 596, -2921, 2259, -10831, -2017, -5178, -15403, 3805, 1137, 3571, -4745, -2937, -3580, -1947, 172, -9610, -1677, -8154, 6148, -8773, 6025, 5997, -9106, 703, -1314, 10591, -13594, -106, 2643, 600, -10094, 444, -10357, 164, 4269, 639, -6062, -5204, -3899, -11351, 1232, 4662, -6651, -10978, -5568, -655, 6780, -5921, 2868, 4072, 6063, 2576, -11250, 4726, -7204, -14539, -12694, 5842, -6059, 9428, 5636, -6324, 2030, -709, -6896, 1591, 3458, 649, -10335, 2690, -4441, -579, 2572, 3596, -6105, -9217, 11248, -2859, -2749, 11570, 350, 8116, 8059, 10275, -984, 1703, 4323, 1093, 2408, 5561, 2455, 4010, 4844, 11323, -10767, 4046, 11171, -1634, -1976, 6465, -4589, 6776, 13623, -6976, 1511, 4153, -842, 427, 849, -1516, -2168, -9379, -2002, -10380, -11014, 8757, -1224, -13734, 1309, -6823, 8183, 3250, -6069, 5882, -5876, 260, -6671, 3794, 665, 12333, 5454, 5060, -6141, 6804, 2561, 1142, -10674, -6483, 5201, 5226, 4645, 3378, 414, -4092, 273, 3675, 4136, 1450, 11885, 580, 4446, 10561, 18029, 16833, 3903, 28410, 22266, -8409, 5429, -13909, -14581, 8139, -11434, -4247, 413, 1060, -22744, -12271, 22232, 2662, -4693, -3623, 9752, 3624, 11070, 17457, -7477, 12, -8106, -15625, 5142, 21129, -13414, 20387, 8872, -1344, -11198, -2373, -7561, 18021, -16744, -10464, 10744, -11335, 27544, 9135, -6278, 19309, -11520, 13148, -232, -464, -23945, 17575, -5175, 9035, 10270, -10430, -14283, -18055, -4250, -5427, -21583, -10849, 11096, -11299, -32017, 13375, -20131, 20734, -10372, -9018, 14125, -15993, 5121, 27480, 1000, -4922, 6083, -17089, -22982, 9231, 16671, 18780, -7687, -18587, -9052, -498, -5137, -3238, 1499, 11444, -14620, 1398, 4824, 2673, 10238, -532, 31149, -3884, -6158, 1916, -2665, -763, -9707, 4593, 4027, 591, 6159, -510, -4566, -9397, 3774, 4060, -994, -6071, -3996, 1067, 3013, -1825, -4511, -1894, 2706, -1023, 6070, 5, 1079, -5703, -6529, -3777, -1533, 3642, -4175, 3123, 5250, -5357, -1705, 7992, 4285, 149, -3583, 2439, 739, 6751, -6966, 6351, -4662, 1668, -1068, 6933, -4453, 1941, -2099, 978, 2233, -737, 1766, -5794, 141, 1015, 3262, -3211, -1404, -2900, 339, -2272, 3764, -1598, 1213, -2158, 2011, 3886, 1661, 2471, 3112, 3272, -3228, 4784, 274, 4846, -6795, -1517, 1457, 7489, -3717, 2070, -1804, 6922, -5015, -252, -5374, 5564, 4517, -4953, 4878, 7063, -1969, -1358, 1375, 5928, -1415, 2159, -3432, 2487, -3212, 251, -3457, 5038, -3545, 5667, 2700, -11345, -1750, 971, -1491, -2725, 569, 3798, 1106, 3868, -4014, -5294, 4379, -937, -2759, -5493, 3499, -5024, -4654, 8736, -5333, -2489, 8945, 7072, 5117, 2285, 5008, 3392, -1623, -702, 4310, 684, 2605, 3807, -4777, 399, 4592, -2688, 1663, -2754, -3983, 9043, 5686, -291, 4669, -699, -353, -5539, -2614, -5011, -4392, -4062, 895, -4595, -8140, -2749, 7458, -10035, 4926, -3648, 7228, 6254, -2041, -2651, -1039, -1928, 2373, -3054, -3409, 10847, -2010, 351, -2663, 7003, 7375, 5931, -9147, -5040, -1590, 8248, -3209, -879, 8199, -4566, 4008, 6079, 7173, 3377, 5624, 954, 10427, 4544, -1104, 3312, -6383, -11350, -7611, 10878, -3838, 7188, 3182, -11117, -3808, -4019, -1644, 593, 5832, -770, 515, 6268, -7091, -6645, -5584, 682, 4163, -6586, 3549, -3225, 3863, 1105, -4327, 4840, -2427, 1768, 361, 8212, 8104, 6021, 4362, 2594, -7117, 3060, 6179, 9299, -6612, 3736, -4889, -5189, -3096, 1047, -3231, 3811, 3699, -4672, -593, -553, -5795, 1171, 6530, 3305, 4743, -6510, 665, -3531, -5621, 3270, 4316, -6909, 2001, -3429, 7833, 5167, 3457, 5156, 3995, 3137, -2277, -4790, -4367, 6918, -4022, 717, -1814, 2927, 3536, 5957, -4736, 402, 573, 9647, 432, 2655, 4772, -12025, 8113, -4894, 7982, 5896, -1296, 7245, 6984, 4868, -10363, 7547, 1394, -3780, 1263, -3003, 1924, 597, 7620, -621, 6215, 3860, 2028, -4521, 792, -68, -2519, 8996, -6868, 1885, -488, 8939, -7152, -432, 4264, -2764, -1588, -155, 3478, 5701, -977, 3403, 2323, 6148, 126, 5871, 1732, -2621, -5987, 329, 6574, -30, -3069, -40, 3168, -914, 1990, 4915, -3676, 8426, 5073, 427, 2152, 1183, -2812, -4850, 3499, 6948, 4894, -2894, 7946, -1011, -7514, 3665, 4445, -6589, 998, -4110, 4213, -1843, 905, -4305, -6369, 1739, -4293, -5886, -2231, 53, 95, 3460, -8582, -1384, -1185, -1576, 2330, -2482, -4430, 8245, 624, 660, 1269, -336, 1915, 5371, 5606, 4861, -2010, 1736, -2140, -9143, 10260, -7114, 4055, 1844, 4929, -1383, -3180, 10172, -6328, 7294, 2839, 2788, -1828, 8039, 1760, 5107, 2254, -6014, 2843, -8602, -6824, -3062, 3929, 272, 4841, -2301, 1924, 2409, -5016, -15146, 7789, 3836, -7804, 6764, 12386, 6015, 1567, -3498, 5280, 6311, -4632, 2905, 7778, -5426, -9237, -6300, -576, -6443, 1974, -1176, 8169, -4317, 11596, -1997, 5223, 1228, -1426, 1757, 2507, 6635, 1344, -1304, 1179, -3950, -5677, 5183, 3864, -4240, 2882, 6927, -6282, 7027, -8871, -7493, 4480, -2863, 3610, 5477, 10182, -2415, 1185, -15988, 6299, -1721, 10603, -6858, -5421, 8087, 5156, -1320, 150, -1179, 761, 1072, -1530, 635, 9254, 8291, 3181, 192, -1480, 1971, -913, 10782, 8003, -16850, 3704, -1677, 6363, 5419, 1604, -5050, -9538, -6153, -9834, -4947, -2682, 8465, 162, -5228, -528, 31, -259, 2832, -5408, -3004, -7486, 4431, -4900, 4306, -3194, -1849, 6736, -3110, -2149, -12257, -1141, 4251, -6138, 3097, 3057, 4143, 11085, 7425, -657, 6619, 3307, 3895, -672, -3939, 1203, 1440, -331, -129, 204, -2544, -1530, -2366, -4994, 3160, -6024, 3554, -90, 4132, -1440, 3557, -4092, 9060, 8287, -5859, 742, -5664, -1963, 4368, -4392, -2976, 8929, -943, -1808, 6670, 4209, 6597, -2954, 3213, -4691, -2147, -3815, -9731, -13627, 3339, -5181, -1697, -500, 648, 4478, 5041, -8458, 136, -17, 2549, 6840, 6830, 5334, 4069, -2438, -724, 10319, -5363, 4847, 4988, 4376, 10232, 10063, 10420, -5528, 10505, 2689, -4145, 8605, 10904, 5872, 464, -926, 3329, -5989, 7594, 5578, -5316, -15, -1565, 3021, -8590, -1189, -5733, -15574, 149, -3660, 125, 5032, -5741, 366, -12120, 3103, -9266, -1717, -5450, -279, -11972, -3405, 3000, -5042, -12016, 2700, 5747, 125, 8576, -1164, -7959, 8454, 2391, 7874, 14591, 8423, 2880, -2646, 7863, 6770, -320, -10647, 3281, -3409, -2190, 3326, -1374, 10843, 3621, -5249, 1419, -3790, -16391, -1279, -4207, -2392, 4951, 1332, 2251, -2350, 4402, -1655, -3087, 2924, 7763, -6803, -3763, 379, 3952, -17451, -3030, -3137, -1914, -11925, 245, 3657, 557, -6101, -4073, 5469, 7858, 10046, -6957, -1586, -4386, -6790, 878, 3364, 516, -2152, -758, 5809, 6701, -3728, 4874, -11516, -7536, 175, 5925, -182, 5538, -5519, -4954, 11570, -3359, 1067, 1707, -4822, -3349, 3865, -8482, 4864, -4929, -3855, 5211, -14428, -977, 10172, -6942, 5614, -1709, -2538, -3450, 8359, -1170, 8474, 1609, -388, -1926, 4321, -2990, -1196, -2190, 4428, 4386, -5152, 2049, -5900, -3877, -862, -5390, 313, 602, -9520, 8261, -4825, -3060, -8228, -4431, 2245, 8570, 1707, -2380, -6605, -8344, 6659, 6603, 4516, 3270, -3529, -9547, 6257, -5648, 5462, 715, -7205, 3482, -2110, 4976, 3849, 6110, 228, 5241, 4469, -13311, 3531, 14424, 7253, 500, 10092, 8841, -7618, 3968, -7339, -890, -2857, 7487, 3544, 2478, -9099, -1100, -582, -7325, 2491, -1354, 4865, 3025, 8119, 7563, -4809, -1135, -3285, -769, -3087, 10799, -16547, 1664, 7732, -2326, -4568, 11711, -2384, 4418, 1123, -2294, 10125, -4351, -5954, 7339, 5951, -2971, 4888, 262, 2849, 6145, 4165, -15550, -5055, -13163, 5999, -5563, -278, 216, -21368, 973, 14625, -15442, -8921, 1876, -689, 8735, -6888, -2618, 3167, -4312, -6062, 2711, -3463, -3644, -5230, -112, -2734, 681, 6829, 6730, -177, -6561, 3266, -6484, 3173, 3601, 7755, -6878, -18210, 1202, 2006, 6654, -4592, 40, 2468, 6706, -4059, -35, 9671, 4695, -2894, 1289, -3282, 5015, -1676, 337, -5630, 1259, -6236, 325, 5421, 6274, 5947, -1535, -7624, -3077, -744, -1252, -2573, 417, -1724, 776, 5360, 888, 691, -5823, -2408, -6861, -1183, 62, 5003, 10252, 1781, 724, 1537, 4020, 236, 4201, -3561, 3839, 4898, 4404, -1751, -4915, -5220, -3516, -5510, 2028, -5317, 1895, 2111, -7335, -1774, -5419, 4265, -3487, 4069, -5272, 7495, -5140, 3784, 4811, 10066, 7789, -3389, 875, 3436, -902, 5194, -2957, 2415, -4466, 3585, -1947, 37, 6150, 3852, -4645, 4574, -1932, -312, -5950, 7684, -8474, -2229, 7468, 1763, 9488, -13406, -10399, 1689, -3090, 4308, -10397, -1878, 11031, -96, -834, 8381, 983, -2162, 7832, 6287, 2878, 8228, 136, 834, 8353, -3918, 1784, 3279, 8340, -6067, -466, 5852, 1838, 8724, 8372, 1334, 1423, 1738, 7973, 2574, -4038, -3420, 5996, 1678, 3711, 3747, 8295, 1173, -1853, 974, 6395, -602, -4309, 1260, -2186, -8, 3792, -2754, -355, 2767, 942, 5452, -10833, 5596, -635, 3138, -3429, -2471, 3632, 2148, -8354, 3675, -11501, 7222, -596, -688, 9635, 11111, 3662, -3253, 4714, 1593, 7171, 4252, -3438, -2005, -2015, 4144, -3846, 5657, 3314, -1065, 2334, 1272, -8073, 5453, 7801, 482, 7947, -1159, 1954, -4293, 3546, 4441, -2876, 7475, 8081, -5397, 7911, -5128, 4880, -6816, 2228, -5767, -2564, 3924, -1671, 1467, -2480, -4240, 3395, 6372, -3309, -4957, -1280, 841, -4405, 2382, 4583, 7607, -4560, -1155, 1347, 7231, 1258, -2582, -2556, 1684, -2617, 7257, -1771, 8649, -2987, -2420, -6664, -2581, -2147, -2238, 3291, 1925, 5860, 6202, 5850, 325, -4722, -9004, -1127, 7158, 561, -4540, -4410, 1039, 6737, 162, -12314, 2142, 1654, 11604, 439, 4468, 4837, 6704, 8294, 3629, 8469, -4873, 2288, -5700, -5441, -4398, -10639, -5081, 3219, -3487, 3020, -14580, 554, -9463, -2445, 2809, 4079, 5536, 6871, 7978, 5857, -882, -9099, 9560, -4196, 987, 538, -2259, -3945, 5053, -2157, 1179, 5442, -4608, -9404, -661, 6225, 4932, 2956, -2726, -4633, 3468, -3828, 11178, 13874, 8385, 5748, 4978, 2235, -5359, -499, -6376, 4761, -647, 9658, 1544, 5556, -2767, 1939, 7849, 1469, -818, -6723, 2041, 10992, -9239, 1139, -8411, 6329, 4929, -854, -26, 2942, -659, 3064, -3119, 725, -4172, -498, 3831, 5585, -3503, -8477, 4481, -2234, -6570, -6176, 7758, -9073, -3853, -1548, -5598, 7914, 18, -2404, 7447, -5506, 274, -3224, 132, -673, -1806, 2230, 2182, -5562, -3540, 9881, 5010, 12181, -1829, 2077, 7381, 1378, 4754, -7905, 2484, -5010, 2844, 5772, 3054, -8823, 8297, 1569, 5795, -1151, 5419, 2590, -2304, -5574, -4078, -4163, -4603, -34, -3251, 5122, 1154, -1563, 6876, 4670, -9957, -8762, 2663, 6615, 10191, 2996, -114, 4170, 582, -1895, -16595, 11838, -3448, 29, 4418, 7339, 496, 1176, 9547, -1626, 5250, 2740, -219, -2504, 10239, -475, 4621, 405, 4218, -9352, 819, -8728, -4342, -5855, -3169, -4397, -2866, -16302, -3213, 3900, -2369, 7687, -6898, -7012, 10755, -3616, -9234, 6475, 1425, -5090, -3218, -12908, -3015, -3598, -1786, 4696, 6182, 6648, 1510, -3916, 4164, 1526, 3471, 5228, 2051, -5318, -17089, 10744, 4891, 3573, -22875, 4661, -5071, 4255, 3950, 2916, 6445, -5116, 2272, -6278, 1541, -4590, 10523, -7111, 3205, 7, 4914, 3424, 371, 3012, -12537, -2656, -9533, 2743, -16200, -5662, -2898, -1196, 2112, 3818, -14262, 7308, 8162, -3638, 448, 9732, 3108, -14671, 16628, 8291, 2319, -3898, -2934, 9120, -2140, -175, -15595, 3264, 1479, 8954, -8028, 1853, 8491, -885, -3152, 9184, -5626, 694, -1245, 3692, 1313, 10650, -4619, 5333, -2376, -5064, -711, 5218, -692, -3169, 1379, -6087, 4475, 3748, 10991, 6041, -1996, 3258, 11620, -3513, -1156, 5615, -964, 11160, -6746, 7079, 3960, -12742, -7850, -14497, -1190, -482, -13029, 1887, 8010, -1048, -17021, 6004, -7030, 7253, 5460, 5216, 4159, -7127, 8396, 4275, -4656, -2428, -5346, -431, -13703, -9255, 9035, 16114, 1042, 4877, -12026, 3948, 2123, -2198, -3309, -1565, 2715, 7345, 2147, 14888, 2581, 5304, -20175, -870, 5607, 10857, -12476, 8825, -14220, -9851, 4738, -14273, -1702, -6957, 8127, -526, 4371, -7453, -11752, -6896, -2957, -2484, 14780, -352, -6116, 3977, 11108, 9845, -6621, -11462, 1147, 2879, 1152, -10327, -3535, 12883, 3616, 4269, 14159, -284, -5109, -15920, -2552, 6076, -3900, -7789, 13050, -4264, -7670, 7293, 4083, 1353, -2332, 6186, -5623, 5237, -752, -11040, -1293, 9316, -14550, 4031, 682, 241, 3116, 5153, 4664, 1081, -510, -3772, -8842, -2273, 532, -10269, -5233, 6896, 3563, 4547, 1659, 8833, 4009, -686, 6370, -7969, 1868, 4791, -15447, 4828, 6357, -188, 5938, 6040, -2681, -3154, -6697, 11861, 2537, 9158, 417, -1222, 9603, 1947, -6518, -13637, -1076, 3119, 2255, -66, 4961, 1593, -5898, 5488, 4604, 11584, 1439, -633, 6725, -4977, -2711, 6969, -3408, 4193, -4378, 5631, -9482, -770, 4988, 50, 1269, -5106, -1981, -7782, 3995, -6532, -1174, 3843, 3993, -4880, 1848, 1770, 7189, 6414, -1048, -7828, 799, -1395, -161, 5219, -1212, -3931, -6984, 264, 4897, -8725, 3775, -471, -1123, 4458, -4338, -704, -17409, -1800, -1476, -2087, 1433, -5085, -3115, -4830, 3028, 8452, -85, -274, 7248, -1485, 353, 4266, 1000, 3967, 3846, -2678, 1323, -3048, 3825, 5305, -979, -1133, -3998, 5649, 5500, 6904, 2308, 1144, -1009, -3325, -5746, -3965, 105, 255, 8822, -4872, -2324, 1146, 6050, -2318, 4879, 3128, -3010, -9829, 2642, -6014, -1533, 1947, -551, 4197, 856, 2770, 3726, -6338, -4389, 131, -4377, -400, 4805, -1710, -4188, 3780, 4539, 6216, 1662, 4977, 6306, -3939, -1197, -5830, -5026, 5044, 4330, -4461, -3185, -3710, -2557, -848, 2375, -9805, 5606, -1009, 631, -6691, -7530, -1921, -1282, -4162, 3118, -1094, -3892, 3858, 1990, -4378, -803, -11060, -9644, -3820, 2359, -970, 2193, 6422, -6280, -2861, -4536, 1448, 1553, -6765, 5631, 4617, -7198, 3173, -3219, 748, -604, -2543, 2347, -4388, 880, -6685, -7403, 34, 577, 2537, 6816, 6231, -2865, 223, -5555, 1385, 975, -7014, -6710, -801, -1567, -898, -1866, -264, 3611, -4748, -3024, -6354, 1675, 7958, 7270, 298, -833, -4609, 5519, -5204, -2126, 837, -2949, 3118, -3728, -1921, -4681, -1576, 7598, -532, 1502, 7049, 6288, 613, 1558, 6232, 1466, 4451, -992, -10138, 1158, 5995, -100, -13, 5615, 2789, 673, -2235, -3357, -2111, -4682, -4123, 1806, -3460, 2959, 4941, -4525, 4176, -1980, 1563, 5041, 441, -10328, -1516, 3773, 1074, 528, 6651, 3165, 4137, 1748, 178, 7834, -2321, 981, 4384, 4289, 8956, -1102, -100, -9267, 1226, -3128, -2016, 2204, 8070, 6355, 3044, 4855, -4531, 6339, -1889, 6810, 3415, 2306, -3058, 5153, 7215, 5430, -5508, 206, 8840, -2816, 530, -1997, -1497, 4642, 1997, -7392, -1543, -6889, -6759, 7145, 8312, 3399, 1807, 9793, -8974, 48, -2749, -5566, 4007, 1956, 1584, -7351, -6474, -1267, -7266, 8957, 2473, 7841, 2776, -5434, 2065, 5183, 7707, -3170, 6594, -6517, -5505, 1323, -3270, -9577, 895, 8845, -1073, -149, -13194, -3887, 8169, -5687, 3668, -1323, -404, 11934, 3171, -10709, 11762, -3977, 222, 1951, -6223, -5291, -587, 1787, 3678, 381, 7763, -5056, 6737, 1639, 661, 4060, 3270, -1234, -2519, -4337, 11537, -4552, 6293, -7682, 3076, -2234, 3645, 5880, 8879, -1989, 3097, 8910, -4994, 2455, 485, 10540, -3092, -5398, -6289, 7035, 3047, 4111, 1092, -6109, 5890, -7989, 6960, 1761, -8021, 1880, 305, -153, 2377, -1349, -2717, -5815, -5702, -2317, -6900, -1818, 7987, -386, 8788, 5597, -8376, -5701, 5384, 7922, 2081, -934, -2757, -5877, 5904, -6482, -1105, -1782, 1511, -2338, -7933, 3361, 2207, -2587, 637, -3254, 1092, 4300, 2434, -6707, -1473, -6337, -789, 5599, -9748, 4064, 1676, -3697, 6410, -6270, -5798, -681, 1617, 3218, 493, -1267, 3179, -4056, 6007, -459, -8660, -83, -8727, 5995, 3575, 3911, -9260, -1654, 4273, -1620, -302, -4643, 1741, 3548, -5087, -12782, -1667, -713, -4041, 717, -385, 5402, -197, -8407, -1630, -5074, 1599, -8712, 5970, 5440, -3138, -7063, 1371, 340, 6631, -2002, 3932, -5927, -2053, -2882, 4792, -1294, -4442, -3287, 769, 418, 7860, -6694, -5972, -14838, -12041, -9334, 17938, -1405, 559, 12960, -15817, 5347, 4206, 13614, 6497, -6505, 11232, -12265, 1171, -1083, 1801, -3995, 5024, -9641, -9065, -2199, -6088, 2331, 10521, -1177, -4219, 8606, 7412, 3053, 282, 124, 13450, 7792, -3245, 3983, 3778, 2440, 1780, -9700, 3128, 2668, -6683, -4256, -12470, 3928, 17114, 5444, -14649, 3162, -1039, -10180, -6619, 9451, -3122, 7836, -12756, 7955, 6475, -5617, 15712, 2630, -5003, 16548, -14677, -2073, -5945, 1917, -1682, 1434, -3935, 3938, -4330, -4751, 5999, -1112, -6539, -8913, 71, -9040, 11575, -3603, 6546, 4524, 18886, 10639, 3341, 4655, -9784, 14654, 3502, -6447, 1923, -7155, -1236, 2167, -6257, -3176, 4438, 8725, -7774, -9238, 5655, -5487, 3480, -147, -172, -3093, -191, 9443, 1165, 6518, 5815, 1486, -5144, -994, 1628, 3405, -321, 6895, -8313, -1215, 1549, 8951, 3868, 525, -4790, 4596, -3411, 9042, 6677, 1846, 3674, 5407, -3719, 3555, 5862, -1684, 6401, 3696, 9233, -4319, -1706, -2832, -4298, -227, 2416, 8188, 1762, 7251, 6036, 813, -128, 1432, -1021, -3995, 2342, 573, 1847, -7718, 6961, 8808, 1246, -4800, -5940, 1807, -4641, 3400, 10090, -2882, -6335, 8980, 4206, 6496, 3675, 10140, -2834, -5187, -7114, 7110, -499, 4079, 1700, 4394, 8394, -730, 2069, 12551, 6823, 9510, -8453, 5688, 398, 5124, 3368, 5596, -1609, 2367, -8857, -5416, -5807, 3247, 738, -2361, 1781, -708, -4672, -8660, 8656, 2549, -1348, -5075, 5999, -5327, -2747, 3439, 2604, -3442, 237, -2535, -5839, 4227, -396, 1818, -2200, 5082, -2275, 671, -6708, -3390, 7006, -169, 5719, 1615, 5623, -1108, -5398, 5418, -7221, -1083, -1127, 2677, -5550, 4727, -5520, 339, 1015, 3566, -2103, 2966, -8694, -7922, -2504, 3695, -6081, 6661, -4378, 133, 2410, -4343, -5326, -5898, -975, 5166, -617, -3784, 9245, -1467, 5187, -2672, -550, 650, -178, -82, -4774, -2691, 641, -7452, -1735, 4152, -735, -7384, -4852, 1972, -3297, -1470, -6146, -4203, -1219, 692, 3437, 1551, -2307, -1233, -1707, -4091, 6813, 4504, 1489, 2450, -1134, -7950, 9563, -1628, -1226, -3640, -7138, -9651, -800, 9463, 3901, 5489, -919, -7011, -1049, -2233, -368, -1559, 5495, 1416, -7264, 3774, -4227, 6380, -6652, -3175, -4098, -2689, 8507, -1185, 83, 7935, 6837, 6451, 3593, 2655, 6122, -2147, 9854, 3221, 9627, -7545, 1966, 2444, -2362, 244, 8559, -1827, -5036, -716, -4002, -11727, -9056, -3133, -233, 2069, -5271, -5180, -8502, 4204, 1488, -1183, 584, 3736, -2196, -1028, -2159, 8955, -4037, 1813, -2361, 11133, -3652, -2479, -2703, 300, 1566, 2010, 9575, -3657, 5169, -755, -8513, 94, 12061, -1063, 4755, -16141, -10275, 5790, -3584, 7170, -6770, 2143, 5590, 2849, 5860, -23634, 5632, -13440, -4598, 1050, -18288, 5551, 6358, 11553, -5214, 8457, 503, -15930, -4372, -3501, 485, 10081, 1052, 2089, -1029, 2881, 10170, -7496, -6585, 1319, 2309, -2139, 1225, 3556, 6566, 7195, 3957, 3265, -1128, -2467, -5396, 3995, -6697, -441, -7649, -1681, -1604, -5626, -4398, 13917, 1661, 595, -430, -3583, 1500, 4825, -5655, -6121, 8729, 2000, -5837, -7890, -3625, -6441, 6524, 5054, 967, -1215, 5150, -8998, -11094, 4484, -11872, 4831, -3120, -1975, 384, 8661, 1394, -11719, -651, 10889, 430, -5349, 3610, -9996, -6820, 2522, 3331, -4449, -493, -4046, -16084, 3260, 7251, 8917, 5680, -587, 7834, 6099, 2314, -5718, -2082, 754, 947, 1583, 1356, 3471, 5194, 1834, -8776, -298, -2186, -231, 4164, 6397, 409, -1809, 3773, -4166, 3458, 4378, -3049, -221, -3377, 143, -431, 193, 4357, 1582, -1763, -786, 7797, -1439, -5169, 4605, 1893, -2797, -3346, 861, -3989, -59, -8284, 7211, 7476, -251, 1008, 5918, 3437, 2030, 3047, 7470, -428, 978, 4656, 2474, 421, -6, 1662, 6547, 5678, 1248, -12333, 1831, -2700, 2197, 3879, 4882, -4093, -14313, 2453, 434, 4770, 1600, -2863, -3145, -1189, 5561, 997, -23, -5206, -3239, 1763, 1856, -9697, 3195, 923, 6599, 69, -78, 10026, -3363, 767, 5419, 554, -1588, -775, -7277, 780, -2049, 4081, -11872, 2417, -737, -11169, -12205, -1675, -2943, 7365, 8728, -5886, 4997, -5623, -4937, -835, 6604, 2796, -2623, 2098, -2411, 2795, 4076, -3836, -1659, 7467, -4456, -6262, -14993, 9896, 6009, 1243, -8776, 2262, 4512, -4796, 1297, -5118, 2473, -4117, -9188, -2605, -6129, -5387, 8281, 658, -15654, 1605, -11855, 322, 3056, -15434, -4920, -3902, -176, -5109, 4680, 3047, 3745, 3129, 4030, 6638, 5275, -7864, 10841, 1251, 3848, 8942, 8660, -2559, -14787, 4220, 6813, 8039, 6645, 7592, -5054, -1367, 116, -12386, -119, 143, -5160, 871, -672, -18222, 2065, -18192, 5062, 2996, 3773, 5983, 3715, -15781, 2444, -12696, 5488, -685, -7781, 9512, -3260, 6137, -6871, 1947, 4039, -4451, -4437, -12085, 3820, 239, -3023, 6270, -831, -2638, -4905, 631, -5945, 7105, 1833, -6550, 4325, -21, -3893, -5445, 1305, -6768, 3575, 5839, -4665, 2491, 8522, -2184, 5716, 1818, -5514, -1013, -4709, -11260, 1160, 834, -5236, 1253, 2691, 731, 1657, -4120, -3063, 1485, 3088, -1847, -1470, -436, 4936, 2517, -4932, 4068, 4580, -902, 148, -11692, -1215, -4501, -3489, -4036, 1293, 1361, 1434, 3074, -8422, 507, -1693, -8409, -1671, 7116, -4941, 7013, 3616, -647, -6471, -1456, -3202, 3981, 3901, 2676, -1736, 1848, -4785, -5810, 5386, -1132, 1620, -4584, -1796, -2771, -1834, -8028, -3768, -2678, -1029, -886, 3649, 1262, -6428, 5686, -404, 8674, -563, -14446, -15813, 1361, -3578, 24042, -4812, 5613, 2391, -8983, -11007, 7779, 16898, 6076, -7932, 1379, -19777, 5000, -13189, -5166, 2391, 4283, -7886, -7111, -7691, -14159, -2865, 15006, -5512, 9342, 2206, 12168, -11841, -9236, -239, 26431, 3964, -730, 5012, 6660, -5646, 5336, -4596, -6216, -4931, 2248, 4732, -4415, -1237, 16194, -4006, 2932, -12882, -14604, -6738, -17919, 7740, -17403, -498, -18933, -1579, -15871, -948, 23878, -4223, 5321, 11411, -3582, 14896, -9175, 14383, -14705, 4442, -9282, 7061, 4785, -2173, -7855, -9076, 2540, 8320, 13903, -1256, 6754, -16691, 1378, 5321, 20606, 9100, -9662, -3422, -25663, 15190, 15297, -7150, -7839, -504, 10875, 153, 2024, -812, 4524, -8965, -7936, -3283, 4575, -5495, -7159, 4887, -1709, 1853, 2367, 5720, -2711, -436, 7789, -4462, -30, -5451, 4899, -1338, 5732, 4099, -29, 2427, 2958, 1119, -1794, -3834, 1216, 3216, 2707, 5849, -580, -4996, 5169, -2861, -6781, -3752, -2687, 5081, 934, 3968, -1258, 1563, -491, -6696, 2401, 3881, 824, 1299, -2572, -5046, -1677, -6131, 8036, -4484, 3526, -674, 3709, 7726, 6784, -863, 6360, 7677, -3220, -4285, 146, 4394, -1589, -4993, 127, 1554, -1758, -2219, -655, -2138, -2884, 625, -4175, -5023, 7402, -1579, -2912, -231, 6766, -5079, 9302, 4745, 2557, 4447, 2327, 3944, -1286, -1469, -1764, -10392, 3177, 412, 4131, -4842, 6357, -7489, -4329, -3308, 5955, -3333, 5598, 4363, -9631, 4519, 3874, 13651, 2358, 3331, 13813, -3360, -11219, 5767, 6637, -4136, -1881, -11648, -9417, 470, 2258, -1497, -5716, -3125, 7698, 8370, 1161, 4786, -4783, 3607, 7116, -692, -2263, 9441, 1277, 4019, 943, -367, 3551, 1079, -2065, -4978, -18659, 3103, 1961, 8779, -19244, 1571, 3047, -6119, -4373, 3930, -2308, 11084, 793, 7172, 8557, -2730, 9385, 6188, 223, 7354, -4386, -8151, -6226, 5932, -3795, 5962, -5711, 4876, -2281, -6845, 8975, 5411, -9538, -2761, 1795, 1510, 5179, -2562, 8566, -1025, 10790, 5650, 341, 10492, 5893, 14317, -8486, -1311, 1325, -2307, -7809, 6998, -3823, 3106, -3639, 491, -5818, -7417, 2032, 3070, 2670, -5452, 3500, -3947, -4811, 6508, 648, 9799, 3844, -8976, -647, 7466, -4897, -5529, 2200, 4877, 1172, 3191, 8003, 21, 2421, 756, 3922, 2970, -4195, -2263, 8997, 10226, -1883, -239, 2028, -1381, 2700, 2250, -2598, 2697, 5126, -9990, 4645, -405, 3130, 5507, -7206, -945, 1243, 1108, -5013, -5259, 2427, -3010, 6185, 3098, 4567, -3252, -4967, -3496, 906, 5222, -7620, -6814, 4243, -6495, 7081, -12180, 8832, -1460, -4474, -1758, -4692, -43, 5015, 6134, 6983, -4970, -9290, 7045, 5243, 429, -455, 901, 5442, -2529, 9880, -7096, 1078, -3276, -8831, -4583, -3612, 1872, 235, -2744, 3535, 8583, 3290, -1579, 4984, -441, -9006, 5706, 645, 2527, 9519, 7208, 1919, -1442, 3411, -10734, -1971, 2117, -799, 6055, -4349, 7179, -3124, 549, 6504, -7128, 5591, 3932, 131, -4313, -2997, -2585, -536, -472, 4148, 3153, 756, 4991, 1435, -1379, 5030, -5091, -581, 5385, -552, -736, 6758, 371, -3617, -5327, 3612, -5956, -5896, -433, 465, -3425, -5851, 4694, -7584, -413, -619, -1164, 2224, 4599, -6227, -11817, -5197, 1832, 5742, -488, 5073, 4393, -3450, 8149, 9205, 4975, -985, -2801, -5655, -3728, -9386, 7417, 8107, 7226, -2741, -3283, 6524, 4572, -7827, -3101, 5208, 1121, 1917, 1306, 6344, 3642, 5692, -19919, 707, -8511, 464, 2270, 4961, -5408, 7802, 4706, -2854, -2084, 3173, -4864, 1255, -1057, -3872, -2496, 2137, -1327, -185, 4815, 5737, -5986, -3123, -1538, 2684, 2623, 5174, 4134, -7767, 1535, 3075, 5010, 3575, -5282, 294, 2389, 505, -4468, 4479, 4489, 5011, -5628, 3241, 1331, 2300, -2111, 6290, -8132, 1665, -3321, -1146, -1914, -4628, 2711, 6493, -5433, 6322, -3499, -6156, 503, 3828, -3346, -3094, 1784, 469, 2272, -5389, 4089, 4803, -478, 5780, 2970, 2623, 7358, -1472, 6695, 5884, -765, 2137, 10, 2466, 3743, 6016, 3328, 1992, 4627, -4823, -5357, -4891, -3914, 10, -3075, 392, -4251, 2524, -2184, -1625, 4895, 2124, -1488, 223, 3206, 670, 7952, -17520, 1136, 10268, 5572, -5741, 5987, -1951, -13382, 17349, -8354, 2783, 7056, 3812, -4724, -2044, -7313, 1343, 5538, -1730, -3628, -3418, -4950, 12174, -7966, 3235, -140, -8578, 2650, -4113, -19218, -6739, -9048, 2165, -4105, -3801, -17181, -4196, -1632, 2870, -3151, -11044, 5607, -11092, 1333, 4337, -617, -7216, -1569, -7087, -13656, 12315, -6773, -15435, 2568, 6610, -3304, -3016, -1394, 6472, -1868, 9748, 12591, -3216, -5157, 13092, -578, 10024, -11703, -9937, 703, 479, -423, 343, 6355, 2767, -1513, -8096, -841, -91, 20213, 5472, 381, 378, 12914, 846, -2788, -2039, 207, -2020, 29233, 2514, -8960, 10598, -1103, -148, -11449, 7626, -3986, 4728, 3911, -1127, 897, 1968, 1490, -3013, 4373, 226, 2934, -2673, 4056, 2412, -1777, -7918, -2934, -1737, 1778, 9859, -7149, 223, 2970, 6164, 1096, 203, -4493, -5424, -8427, 6512, 3139, 1977, -3337, 4406, -2819, -2751, 4878, 2264, 5868, -1905, 5057, -7647, 977, 5567, -2388, 4987, -12386, 5601, 2819, -3480, -2398, -3193, -3275, 7259, -5331, 5988, 7169, -978, -2553, -5943, -3702, -2987, -8657, -6493, 2086, 3798, -5516, 7139, -1608, 4526, 11724, -4401, 7110, 3339, 85, 6741, 1714, -4326, 6510, -1363, -7383, 124, 7137, 2537, 175, 4979, -462, 6255, 3010, 92, 1718, -3731, 3349, 4978, 3505, 6939, 7346, 1807, -122, 1554, 5263, -6786, -5734, 1685, 2299, -840, 7066, -3577, 3736, 2677, 4345, -1825, 157, -3240, -6374, -475, 3115, -2830, -2695, 2330, 1279, -8225, 785, 4003, 8543, -5074, 10148, 2507, -6705, -8741, -1126, 7442, 2171, 5736, -5452, 1987, 549, -5446, 7629, -4497, 5835, 6673, -1365, 8806, -3616, 3740, 2780, -2627, -6320, 9850, 3616, -3323, 1896, -546, -1738, -3682, -9869, -658, 1624, -2918, -3984, 6511, -4967, -934, -3504, -5750, -10050, -10369, -1842, -8082, 1336, 3021, 5219, -6832, -11346, -1844, -882, -3059, 3327, -3567, -2825, 1350, -2719, -2048, -1676, -1249, -6650, -4011, 3698, 70, 4022, 770, -4590, -131, 1016, -7322, 3485, 5836, 9302, -1116, 2264, -2545, 3709, 8434, -1015, 7234, 7451, -2885, 462, -2352, -5133, 9416, -2593, -5443, 1737, -3670, -4025, -6500, 5663, 3964, -591, 4050, -3165, -2215, 11080, -303, -3382, 6107, 906, -8509, -2454, 2228, -8067, 1182, 5043, 4903, -7376, -7475, -5933, -2448, 1184, -1731, 3860, 3902, 10565, -642, 1441, 9465, -4535, 3896, 410, -3710, -237, 8828, 4017, -1559, 4422, 5095, -2382, 4985, -4657, -2421, 6190, 1129, 3124, 4061, 1425, 878, 1938, 4060, -3622, 2244, -5142, -3265, -5103, 12018, -4178, 3570, 3093, -4853, 6198, 5517, 3412, -90, -1151, -2795, 6175, -2908, -5450, -5047, -9765, -1241, -11079, 3552, -2721, 1617, 2822, 3435, -1350, -4952, -848, 2197, -4044, -2057, -6989, 4352, 4833, -2768, -132, 7443, -2016, -3909, -4503, 4508, 8968, -5941, -2833, 4892, 4000, 6455, -1859, -3570, 2740, 2078, -1637, -2195, 605, -3999, -14570, 7075, -1870, -296, 5116, 11575, 211, -9382, 4155, 3126, 188, 5812, 3294, -953, 5106, 3634, -1316, 5532, -2970, -1456, 8325, -5657, -2441, 3441, -3850, 6314, -3174, -1899, -3613, -3190, -2434, -4169, 3767, 201, -4226, -4193, 2259, -4382, 1247, 609, -149, 6455, 4439, 2450, 9834, -5083, 9643, 2301, 1298, -2926, -2207, -5628, -11318, -8436, 7486, 5909, -2838, -1689, -9459, 1531, 5428, 4498, 5468, 2916, 4967, 4456, 4374, 8129, -2838, -444, -6933, -217, 2396, 3998, 1303, 4838, -3350, 16164, 13559, -4129, 4362, -6250, -8967, -3959, -7909, 108, -1707, -5442, -20995, 3243, 4463, 7072, -221, -10923, 2413, 2249, 5298, 1846, -3876, -2943, 13251, -7804, 864, 12963, -5527, 15527, 6845, -661, -3240, -3314, 1827, 15117, -54, -5667, 7385, -4301, 8342, 1988, -9160, 17465, -1311, 693, -4064, 4361, -7973, 4297, -6361, 10085, -2144, -24135, -2847, -21348, -2299, -864, -19242, -5639, 5998, -13685, -19812, 2002, -3819, 8375, -3861, -1201, 5626, -9886, 11728, 19231, -649, -3375, -6554, -6780, -10437, -8327, 3912, 13265, 3512, -6580, -4392, -1050, -4537, -3192, -1447, 1031, -10452, 2882, 7551, -1384, 4850, 2745, -29362, -2882, -3794, -22567, 4475, 2268, 11197, 1591, 7470, -275, 1680, -5375, -20970, 13120, 5944, -503, -8981, 2626, 7955, -4247, 2321, -9349, 895, -1871, -7562, 858, 8077, 2604, 7077, 2390, -2964, -5303, 4152, -16140, -4639, 2637, 4805, 2685, 725, -8516, -1183, 5878, 209, 4374, -4650, -5993, 6539, -5011, -6528, 4284, 1946, -2297, 47, -21038, 3097, 5299, 1584, 37, 6636, -820, 7633, 4317, 7534, 946, 6438, 1560, 8254, -8783, -6474, 3958, -3104, 2486, -14269, 4611, -7458, 714, 168, -800, 944, 1288, 375, 4363, -662, -4250, 9544, -14139, 1067, -2087, 7051, 6809, 4299, -8786, -5304, 4445, -7623, 4944, -18532, -17763, -8233, -3483, 974, 2151, -4141, 3776, 348, -2610, -5746, -3116, 1704, 1988, 3808, 2157, 4119, -556, 3145, -5127, -4054, -6443, 829, 3316, 1754, 5723, -4137, 5669, 1929, 142, -7037, 1042, 947, 5250, -6920, -4766, -3761, 880, -5207, 5841, -1252, 4989, -7640, 1485, -6353, -1957, -5560, -8085, 5813, -1277, -2811, 3741, 7423, -1617, 3577, 6515, -2218, 275, -6298, -3058, 3822, -2701, -8482, 445, -51, -532, 3653, 1004, 6289, 774, 3262, 3066, -4182, -5534, -3117, 1207, -5116, 3474, 5476, -3924, 4838, -6385, -3155, 3553, 2549, 2500, -1996, 2895, -507, -10983, 1790, -5339, 5230, -1712, -2001, -901, 3699, -3339, -3516, -4962, 3861, -1702, 7704, 2135, 2034, -8843, 6537, -898, 3107, -791, 6441, 7529, 6410, -904, 1058, -5528, 435, 5801, 475, 2843, -7792, -10431, 4273, -3820, -509, 3577, 683, 8080, 2737, 5503, 3205, 2632, 1584, 4854, 520, -5837, 4289, -3051, -327, 487, 9861, 3900, -1368, -6069, 3501, 2628, -636, -5267, 1031, -1823, 3920, 5998, 3215, 9997, -7842, 7024, 2204, -5343, -6882, -772, -2857, 1220, 7140, 4710, -6321, 4411, -5382, 442, 1384, -4968, -1621, -2624, 168, 9009, -2539, 3407, -6101, 3410, 1891, -4261, -3190, 8031, -3141, -5510, 3016, -7658, 2077, 7369, -1896, 4847, 3366, -2932, 4004, 2808, -2616, 1460, -2612, 823, -2713, 8397, -3557, -2698, -162, 3159, -7085, -8397, -1092, -1816, -1965, -3104, 6907, 6380, 4209, 3464, 5978, 3751, -5602, 38, -6505, 903, 4816, 838, 295, 2508, -2673, -1415, 5403, -1270, -1834, 1853, -3349, 4523, -1566, 5906, -4364, 84, -3635, 2655, -1584, -1712, -218, 7039, -3530, 2201, -423, -648, -9652, -4188, -1378, -8000, 6024, -173, 9167, -4504, 624, -5525, -2982, -2454, 1218, 6087, -913, -5384, 9529, -7539, -6248, -5334, 5294, -847, -2805, 5687, 512, -2428, 1044, -6228, 1254, 6073, -2389, -2825, 4037, 1319, -2520, -6251, -1560, -4075, -5309, 2182, -5474, -4029, 3803, -5436, -5208, -8904, 1581, -6310, 3736, -5561, 7221, 2714, -8376, 3410, -6039, 11009, -3275, 2677, -7143, -3334, 5210, -8779, 1148, 2922, 3031, 4558, 7856, -38, -377, 4364, 681, 391, 6112, 1377, -1756, 3369, -722, 4234, -1169, 4192, -1052, 1760, 798, -170, 3706, 9243, -4344, 2953, -1725, -1277, -4486, -1143, -535, 1470, 612, -4777, 2246, -2070, 3634, -3433, 2146, 3806, -6386, 3954, 3850, 6275, -3494, -2153, 5094, -4732, 3031, -1255, -1529, 5762, 6735, 4133, 6069, 5926, -6293, 7146, 310, -565, 4248, 7034, 6155, -2527, 688, 6080, 901, 9572, 3101, 245, 522, 6468, 3181, -3479, 1616, 1526, 1783, 4012, 438, -1652, 4270, -4879, 2542, -6042, 2510, 6389, 3433, -4498, -6356, 1303, -4482, 5718, -2465, 5391, 2981, -1601, 6895, 1141, -5577, -7767, 7961, 7112, 7870, 1673, -4962, 11103, -4848, -8777, -1115, 10385, -7927, -3604, 13520, 12988, 5101, 7152, -7620, 2972, 8188, 8465, -6327, -1057, 1276, 5707, 3346, 42, 7469, -3763, 343, -5631, -3549, 3481, -1658, 9843, -6222, 1069, -6431, 4892, -6739, 1040, -2499, -506, 2466, 4621, -16931, -1305, -6572, -3161, -2892, -9783, -6048, 198, -3500, -3397, -1982, 5813, 8340, 8099, 2958, 5894, 2907, 3694, 6820, 3414, 2859, 4493, 1409, -1563, -4795, -8089, 4271, -2781, 2394, -3794, 12775, -1143, 1298, 4267, 7989, -2090, 8086, -4065, -3827, -4032, 2905, -3295, -3623, 4765, 4556, 1924, -1929, 3307, -3557, 2024, -1575, -4562, 2158, -2483, 1306, -3087, -3262, -1541, 3269, 12916, 10474, -12567, 428, -5328, -6791, -845, 2245, -3953, 2477, -10734, 7015, -5354, -55, 2534, 1427, 6844, -5013, 2722, 5132, 2248, -7575, -1337, -2030, 939, -1461, 1686, -1487, -200, -545, -7459, 875, -35, 1298, 6222, -7229, 705, -3286, 4018, 6351, 2587, 2069, 14860, -3208, 1789, 2878, -289, -5292, 12404, -8403, 8989, 7190, 2488, -3529, 8938, -7015, -3417, 5302, -8816, -311, 2289, -1223, 3392, -8688, 9450, 2585, 1340, -4625, -5472, -3783, 5966, -10006, 3238, -329, -4250, 476, 5132, 7579, 7008, 1167, -4487, -3757, 2363, -434, -5055, -2694, 5388, -10436, -3601, -272, 2187, 7047, -1871, 2302, -9298, -3271, -1404, 385, 7112, -1022, 4465, 5004, -8771, -3333, -4550, 1005, 2750, 7068, -4885, -6038, -1858, 3814, -1125, 10103, -266, 1204, 3423, 6903, 9348, -453, 857, -6876, 4782, 3303, 3267, 2022, -41, 3804, 5142, 9193, -456, -4566, -9900, -3514, -1824, 4507, -1347, -2176, 4855, 2524, 7357, -3355, 6307, -3114, 10607, 274, -2634, -5748, 402, -5759, 3758, -1339, 7757, 306, 7, 1883, 4948, 6260, 2080, 1480, 3573, -3109, 4610, -4640, -2440, 5888, -3619, -5730, -55, -916, 6914, -6108, 5603, 8902, -2464, -1389, 8408, 453, 200, 4304, -4677, 6641, 1566, 1758, -766, -7581, 1317, 1573, 2893, -2310, -6495, 7501, 3447, -4431, 1430, 3853, 2826, -7697, -1812, 3094, -9919, 4321, -2002, 5676, -269, 2598, 1849, 5560, -822, 572, 6245, -4128, 2189, 7585, -5014, 1070, 4958, 2764, -4108, -1687, -1171, 6167, 5477, -4461, 4274, 748, 6603, 5835, 2808, 4264, 194, -2901, 5409, -3232, -9692, 282, -5555, 1624, -422, -15, 1391, 3368, -7868, 1841, 64, -3618, 1164, 2544, -11494, 4185, 120, 924, -2013, 642, -4682, 5253, -834, 2633, 7017, -1396, -3680, -2714, -3783, 692, -5608, 3819, 5507, -7348, 6611, 5364, -12895, -5306, 3092, 4123, 6876, 1571, -636, -6677, -17521, -5228, 3435, 4088, 2892, -1073, -5088, 1540, -3824, 9627, 2729, 3268, 1505, -896, 4870, -8853, -752, -134, 4875, -1526, 5489, 73, -2552, -5782, -7967, 673, 611, -658, -2777, -7298, 1794, -10453, -11041, 2494, 3890, 7188, 8516, 1909, -8279, -807, -4000, 4696, -3103, 8388, -3454, 1694, -2491, -438, 2744, 785, 9491, -2365, 1884, 5014, -7342, 10264, 7583, -6042, 533, 4729, 9825, 2594, 719, 1238, 417, 1286, 7792, -5608, -2118, 12272, -11033, 8780, -640, -9229, -4807, 7045, -6195, -4504, 2239, -8456, 2653, -8941, -3121, -7220, -3981, -677, -4883, 856, 7854, -3336, 1080, -3315, 7192, -13383, -2214, 6333, 2823, -8248, 6731, -3039, -3349, -3924, -1040, -4120, -994, -1803, 1655, 3952, 12531, -1173, -8746, 3154, 4200, -584, 4562, 3683, -3967, 839, -546, -2355, -428, -2020, 5741, -2466, -9432, 367, -895, 394, 4136, 2005, -5493, -19145, -6954, -6367, -5081, 8750, 6994, 656, 1303, 3110, 1879, 4863, 6964, 6496, -6080, -8903, -4301, -2162, 2086, 1737, 8433, -970, -3904, 3226, -5917, 2687, 4331, -3555, 1487, -3278, 9896, 3345, 731, 1571, 4606, -2642, 8462, -2399, -8596, 3150, -766, 4310, -5425, -2407, 4942, 1019, -2242, 1400, 195, 1795, -2692, -8415, -9130, -5580, -4316, -2516, 4680, 6368, -1126, -12451, -2628, -2302, 463, -14520, 2526, 6733, 595, -5097, -2387, 362, -8941, 7624, 5089, -4018, 1476, -4605, -5402, -4895, 2848, -813, -10320, -4273, -9906, 2156, 3447, 1793, -3934, 6856, 9111, -1628, -3647, -4538, 7635, 6369, -3209, 2112, -3723, -8153, -1095, 5961, -1947, 5103, -322, -6460, 4819, 7856, 698, 7778, -445, -1408, -3372, 549, -6225, -968, 4547, 2880, -17077, -3949, 8735, -2328, -181, -1615, 3510, -500, -4603, -8185, 6700, -293, -7884, 2045, -8528, -2384, -3487, -565, 4509, 6280, 3589, -2421, -386, -9458, 7894, -1466, 14249, -11125, -13698, 1803, -5084, 1482, -1839, -3842, 5312, 3596, -4378, -8488, 3865, 4432, -2399, -20013, 3838, 8709, -3604, 4088, 12412, 4282, -194, 2190, -7121, -3422, 3313, -6754, 8698, -629, 5480, -808, 2649, 1676, -2701, -6654, 5012, -6624, 2747, -22, 298, -3871, 2171, -9727, -293, -5661, -1879, -7029, 4398, 4711, -2080, -2448, -3736, -1507, 2505, 3627, -5413, 861, -1098, -11050, -9577, 917, 3547, -2306, 167, -3289, -984, -6997, -4724, -402, 3149, 10917, 2804, -7537, 4846, 4408, -10450, -1748, 4664, -4872, 465, -4423, -6492, 6209, -3280, 7093, -3860, -11065, 7079, -5369, -2092, 681, -8165, 2435, 2077, -3846, 3359, 9354, 6963, 4060, -9590, 2974, 5549, 6627, 6571, -1172, -4352, -2226, -969, -3079, 4452, -5879, -1933, 3949, 3844, 10174, 309, -11771, 292, -1132, -12861, -10770, 2021, 2827, 2599, 2496, 3946, -5499, -3266, 7655, 3510, 7503, -7151, -4069, 4084, 8186, -689, -3697, -6906, 1473, 7261, 2779, 3951, 3951, 6037, 4673, -4432, 1293, 449, -4827, 1917, -1380, 6215, 2978, -1996, -420, -2146, -7378, -691, 6974, 7743, 4689, -4117, -4522, 5037, 5290, 2729, 5259, -2353, -2151, -849, -825, -2614, 609, 43, 2814, 2624, -1574, 8836, 1787, 5749, -4434, 2615, 3071, 9862, 5602, -4772, 1418, -1263, 1180, -6044, 7283, 4658, -1343, -3035, -1777, 5698, -1106, 4920, 1890, -231, 7441, -11865, -6024, -8250, -3279, 1528, -5353, -2307, 5777, 3451, -6131, -4875, -2159, 8255, 311, -3690, 3704, -7314, -3432, -1058, -4302, 3172, -375, -426, -6666, -8828, 4552, -13413, 5607, 1513, 874, -1112, -5059, -562, 9973, -7182, -3568, -3866, 5540, -167, -3328, 8126, 270, -406, -913 };
static const int16_t b2_q[100] = { -2, 2850, 4996, 4270, -2241, -1279, -1113, -807, 1591, 2840, 5345, 6575, 2159, -164, 2497, 3814, 4924, 6284, -53, 2854, 1769, -1494, 3661, 2787, 523, 3148, -1466, 222, 1998, -332, -894, 4268, 3624, 5862, 6179, 3854, 3360, 2788, -3084, 1880, 1330, 3164, 4617, 1065, 5694, -2988, -3193, -2028, -3737, 0, -1179, 3324, -4527, 5704, 1578, 1325, 3832, 1232, 1645, 3043, 1049, 6195, 4879, 1497, 1546, 1925, -1925, 2400, -4358, 2415, -1541, -323, 4612, 2659, -1634, 2447, -900, 1763, 6305, 6394, -2430, 2597, -3688, 3419, 1407, 5305, 4770, -237, 846, 557, 1851, 4644, 2601, 3175, 606, 4623, 3784, 2789, -8118, 3361 };
static const int16_t W3_q[1000] = { 9148, 8650, 1424, 13887, -1131, 2325, -28217, 5771, -2778, 1008, 2683, 26035, -2009, -16947, 11364, 31324, -24513, 13977, 4395, -1375, 4968, -19543, 3409, -11285, -3845, 7187, 6499, -8723, 177, 5412, -25226, 1095, 8795, -1440, 5989, 622, -9344, 12931, 11293, 9914, 27027, 12459, 6861, -13799, 6624, -7480, 29885, -8180, 6059, -15315, 13636, -7925, 5825, -4279, 8606, 5483, -11542, -14450, 8266, -779, -232, 18136, -20175, -4709, -8880, 7680, 10840, 9418, -14166, 6758, 966, 3398, 5648, 1619, 583, 5332, -10941, 5250, -2809, -5394, -9763, -1173, -2098, 12598, -17226, 2154, 1070, 4966, 5780, -6815, -2938, 20194, 5924, 14756, 9029, -10702, 8422, -8712, -11578, -28180, -8189, 12543, -3374, -1934, 9639, -23015, 31105, -4236, 5386, -442, -1482, -12475, 11845, 7228, 4690, 2, 484, -14164, -4833, -2727, -7017, 8705, -7882, 11465, -9989, 575, -11001, 2940, 11175, 1480, -2864, 22315, -20843, -12474, -10341, -10125, 12808, -6308, 1767, 1309, 4049, 12133, -9533, -7567, 13075, -1119, 14251, 9448, 5834, -15318, -19314, -16216, 4152, -8447, -5583, 3420, 7148, 10329, -13355, 7525, -12523, 4762, 3468, 4612, -5873, 2474, -1904, -7804, 6501, 6483, 6551, -12226, 7448, -6922, -3269, 5741, -7750, -16215, 3606, 12578, 12834, -10516, -6986, 5929, 376, -8737, 5324, 1613, 5122, -4355, -14423, 3059, 4330, -8729, 4210, 6508, -2138, 8908, 7571, 1782, -13689, 11158, 15343, -6855, 8939, 1822, -7800, -10114, 2040, -8033, 7891, 117, 12921, -5609, -9305, 347, -6211, 9930, -6187, -15158, 7807, -12111, 4745, -1279, -3019, -1560, 4887, -8424, -3556, -2170, 6924, 2322, -3663, -15622, 1650, -15565, 1609, 12830, -2169, 11075, 11309, 8731, 4705, -9178, 307, -9381, -28777, -17718, 9738, -6449, -10685, -4564, -5450, 348, -9885, 6276, 5244, 1811, -13088, 8762, -5089, 8372, 5140, -6676, 6094, 2746, -2433, 8139, -3093, 1894, -2554, 7940, -18309, 7986, 4857, -6615, -5096, -1557, 7938, -7143, -11618, 11440, -774, 14967, -14798, -9713, 5587, 11854, -3297, -7560, 5894, 5296, -3046, 3033, 930, 4721, -6551, 1105, 1115, 346, 15750, 4243, 7287, -2961, -3040, 5104, -14656, 2999, -4016, -17510, -11841, -2320, 7605, 6163, -10471, 2289, 4489, -236, -1580, -8525, 13765, 7511, -14193, 6666, -9909, 10446, -3632, 4031, 8351, 3091, 10245, -11382, 5817, 1833, 8347, 1727, -650, -8755, 8806, 8754, -12122, -9254, -8470, -7851, 1315, 1297, 3573, 5529, 6735, 7572, -16624, -7545, -23954, 6990, -17957, 3721, 9880, 19025, -3953, -7628, -1148, 20738, -2118, 11727, -16485, 177, 11649, -26999, -4588, 3996, -981, 2988, -13297, 6577, -545, 6505, 9619, 2387, -13118, -5934, 14901, 7226, -11943, -25405, 16, 10530, -4190, 12532, -7476, -2792, -20796, 7449, 5499, 11737, 2514, 8150, -402, 7118, -7055, -12280, -12552, 6109, -12044, 1659, 4808, -4564, -69, 11448, -8256, 6777, 7953, -8167, 5772, 1700, -562, 5204, -8152, -6577, 11118, -13419, 3869, -8437, -11673, 8846, -917, 3140, 11213, 191, -7535, -510, 13096, 16136, 3431, -15164, 6022, -18260, -21514, 7137, 2573, 4938, 10177, -10093, -8279, 2344, 7521, 6841, 4384, -3268, 2255, 8424, 5987, 20474, -3728, -20495, 15008, -9800, 360, 6194, -2379, 12749, 23363, -20018, 5530, -23641, 7159, 2366, -23820, -1412, 3701, -9076, -5781, 3275, -1358, 9444, -3420, -3178, -8785, 5064, 3183, -10805, 13713, 17386, -11058, -23314, 18271, -15057, 7602, 8498, -10518, 3201, 7070, -1305, 5807, 859, 3955, 4969, -2157, 1712, 7293, 3354, 1278, 18600, -5898, 21154, 3054, -9582, -22671, -7332, -6255, -4887, -21829, 2826, -9890, 10270, -3532, 5084, 7814, 3990, -8715, -372, 14776, -8015, 23416, -7671, 1094, -11138, -20, 7268, 1801, -17813, -13694, -11666, -3820, 1170, 4540, 3919, 3808, 5476, 7190, -3497, 8074, -17788, 10091, -3258, -125, 3689, -9974, -4636, -1448, -6322, -4918, 1474, 15063, -3520, -2670, -8194, -10700, 2732, 19659, -26599, -12593, 6473, 3735, -5465, 12112, -15378, 1303, -14258, -11022, -21, -14325, 4069, -3698, -1510, -2101, -1939, 1445, 3210, -9104, 6866, -11523, -729, 7586, -15775, 8866, -6356, 8232, 7262, -14825, 7913, -17706, 7443, -3347, 506, -6600, 5042, -9452, -8449, -6923, 3348, -6262, -8849, 5655, -6674, 4474, 190, -6894, 3640, -6630, -1796, -14357, -4763, 10233, -5378, 3054, -11001, 4866, -14320, -6299, 9712, -19182, -492, 6304, 7042, 9965, 7066, -11637, -5173, 6648, 5822, 2969, 7808, -5157, -16380, 9321, -3914, -15543, -2335, 11428, -15341, -9564, 17742, 5330, 1381, 904, -13486, 7800, -12780, 1591, -5359, -6813, 31766, -4895, -1710, -3040, -672, 14767, -8956, -16565, 15538, 14635, 20339, 2391, -14715, 7150, -20672, -14722, -1122, 12900, 105, -11122, 9818, -877, 10422, 1888, -394, 4803, -828, 4870, 7952, 13257, 14250, 16060, -9487, 376, -6500, -11403, -7740, 8282, -16863, -168, -15103, -922, 14642, -2733, -3969, 17332, -10125, 469, -19025, -3238, 4593, 2848, 2347, -3574, 6748, 4217, 5391, -12184, 3338, 10890, 14271, -12906, 8273, -10394, -2967, -7585, -10302, 7185, -4184, -12466, -21747, 5633, 4382, -3141, -6537, 412, 8172, -4747, 7985, 1855, 10995, 4746, 2577, -12178, 1970, -13805, -2837, 10403, -45, 13726, -16715, -6872, -21756, 4169, 2797, -18552, -3956, -214, 12813, -989, 10010, -21341, -11624, -1002, -14781, 6756, -4436, -65, 5028, -6973, -458, -3038, -2154, 201, 7214, 3482, 3778, 4688, 2915, 5410, -9838, 3817, -4054, 8972, -1085, 6482, 7319, -10262, -1112, -12755, -10457, -581, 10729, -6167, 1674, 8876, 1090, 5949, 2981, -24538, -12970, 6350, -7633, 4508, -3613, 7990, 5601, -4649, 9591, 12473, -8897, -3214, -9390, 11080, -15021, 9593, 14587, -86, 5695, 12547, 28860, -519, -15263, 12607, -25125, -19728, -13137, 9082, -30367, 18086, 15196, -12233, -2560, -5604, 10569, -22712, -1397, -4105, -31937, -3186, -15509, 7932, 5059, -4578, 5727, 4098, 4995, -7477, -2498, -14100, 1770, 4101, 14139, 2257, 9051, -997, -2695, -9369, -16819, -28243, -1902, 11887, -12981, 12664, 5648, -794, 2173, 5580, 5960, 2075, 3023, 10431, 9155, 6446, -26, -12024, -13315, 5351, -9662, -6268, -5646, 2326, -5497, -3019, 6121, 7260, -3410, -846, 7425, 5527, 22034, -17219, 8705, 2520, 3324, 5805, -907, -9387, 10091, 23170, 14457, -2584, -9501, -15566, -2668, -1922, -8156, 14958, 12743, 2322, -14869, -6596, -4671, 1914, -5853, -1865, 3268, 931, 5603, -20587, -5580, 22336, 16051, -2225, -15279, -22140, 8869, -2063, -27807, -5511, -11575, 16040, -4609, 2477, 405, -23198, 7723, 1912, -8515, 5451, 1965, -15568, 10572, -835, 2973, 2027, -24861, -1245, -11920, -3748, 16416, -372, 9197, -15491, -6235, -22550, -605, 6950, -24570, 4936, -15923, -6425, -3015, -248, -6660, -932, -7516, 7568, -1052, 4483, -12228, 6724, 10253, -1842, 8575, -1971, -6033, -4257, -9096, -4175, 746, -16466, -11449, -25250, -10111, 12741, 23793, -11610, -4719, 6114, 1542, -5623, -4148, 10715, 16747, 2123, -17783, -30052, -1025, 3808, 10171, -21321, 8419, 6066, 9186, 11944, -11686, -9086, -16214 };
static const int16_t b3_q[10] = { -4024, -7526, -1604, 1912, 371, 3168, 1468, -2108, 2419, 1984 };
